972 128
359236505 0.015157846 0.23578508 0.008951667 -0.11934542 0.025657024 0.17698489 0.0006256857 -0.13254435 0.3007791 -0.16655244 0.026463637 -0.52889115 0.15367004 -0.0030723691 -0.2690903 0.2514329 -0.16542637 -0.2633544 0.11439537 -0.065927625 0.29310057 0.13738924 -0.008991053 0.29031438 0.12601867 -0.050572664 0.036255423 -0.19820099 0.08969172 0.062191337 -0.014473055 -0.15095544 0.015104398 0.02615484 0.090780474 0.41390195 0.04167622 0.08663281 -0.17489712 -0.4176355 -0.21077564 0.12862065 0.013135619 0.26842237 -0.35256058 -0.0788788 0.3174743 0.059459038 0.055895835 -0.101848766 -0.17672941 0.38622114 0.1165045 -0.13687377 0.12717858 0.25417653 -0.3889597 -0.2501385 -0.14603959 0.039117735 -0.094348155 0.03484543 0.15758114 0.08219937 -0.42903635 -0.1313631 -0.11099929 -0.023243004 -0.2572083 -0.12293372 -0.0063684494 0.25691262 0.16719054 0.2099697 -0.0062567885 -0.2543583 0.023533057 -0.032027192 0.018721217 0.035641145 0.24875994 -0.21795481 -0.13081595 -0.25384864 0.2554337 0.104131766 0.047408205 -0.17506744 -0.055454403 -0.18089812 -0.027602822 -0.3090314 -0.28000417 -0.08841591 -0.12923808 0.05600536 0.15390474 -0.0053434637 -0.095698655 0.27054554 0.16929795 0.3139813 0.2676067 -0.15563993 -0.062314853 0.25020185 0.02919838 -0.12230292 -0.24968463 0.030010266 0.14517021 -0.2760544 0.04280311 0.022628943 0.03126704 0.006205578 -0.009682696 0.23548065 -0.17559278 -0.28537947 0.15331833 -0.18173218 -0.037522078 -0.030697148 0.12522064 -0.036723625 -0.14771308 -0.12818666
20644420 0.15986586 0.026579244 0.1443712 -0.085232794 -0.19619696 -0.14088282 -0.0003069056 -0.26560235 0.18753125 -0.00034185444 0.15896097 0.3265899 0.35056245 0.037378635 -0.11882265 0.0900994 -0.16562991 -0.3226444 0.15535957 0.011585936 0.034252394 -0.38233492 -0.3067336 0.25139046 0.092863 -0.3740331 -0.24453822 -0.15585586 0.19984588 0.039107066 -0.22470452 -0.07979161 -0.4659077 -0.034137078 -0.3069207 0.31662515 0.12093351 -0.21088585 -0.009280226 -0.12928456 0.33528423 0.15833662 -0.0023184817 0.32508412 0.19408481 0.13959305 -0.07582622 0.098265156 -0.1299173 0.11292223 -0.24867089 0.087755546 -0.13609637 0.037330702 0.057936434 0.17902558 -0.05967886 -0.18845904 0.19015102 0.19006176 -0.12329069 -0.15899414 0.20507306 -0.2674014 -0.2026992 0.13779353 -0.3681615 -0.19290401 0.051080517 -0.0022120452 0.007963217 0.27599514 0.13708036 -0.13108975 0.13722864 -0.097151436 0.38307586 -0.10152215 0.053255733 -0.31697884 0.35081595 -0.14571202 -0.21720554 0.03750052 0.31578916 -0.08726339 -0.4528149 -0.3883799 -0.21393012 -0.06784708 -0.058136035 -0.04032592 -0.06431694 -0.22998509 0.034578614 -0.11710333 0.30122387 0.23163874 -0.1713384 -0.18206042 0.30852896 0.12566957 0.020413518 -0.17448308 -0.07578068 0.28664404 0.11137229 -0.04384037 -0.16241175 0.09890942 0.07415078 -0.07444953 0.27076298 -0.3339567 -0.07569253 -0.008244455 -0.32455844 -0.028486982 -0.0008583942 0.36118224 -0.006415991 -0.22038478 -0.006431717 -0.03782792 0.0853884 -0.17424108 0.019166557 -0.10203483
2360323201 -0.009454095 0.22851689 -0.117714524 0.015797827 0.018627893 0.044270672 -0.11643793 -0.06552797 0.4764115 -0.048246883 -0.18144558 -0.13624549 0.45414162 0.04889522 -0.19991972 0.16830933 0.11607784 -0.41533226 0.29613125 0.09335395 0.16152632 -0.3368844 -0.05614735 -0.19747804 0.09820433 0.11777088 -0.22709987 -0.013482609 0.17521313 -0.051896784 0.052815508 -0.048556868 0.28043684 -0.011071381 0.0644557 -0.06725776 0.09040223 -0.06214722 -0.29204112 -0.19635391 -0.15880583 -0.09042754 -0.045957584 0.33662927 0.076713 -0.11190149 0.10376171 0.08418465 0.025535457 -0.06643446 0.080579594 0.39706504 0.031606708 0.080742836 0.20691933 -0.0032947615 -0.31587142 -0.00606549 0.22667357 -0.17619035 0.23263481 -0.035140544 0.11224806 0.10882445 0.0107030105 -0.01993386 -0.08446402 0.13564545 0.15418293 0.034294654 -0.119015425 0.19789249 -0.0056842207 0.44599307 -0.0005006607 -0.18385343 0.059978183 0.18554512 0.02513187 0.13166606 0.33721113 0.08179268 -0.41618484 0.03570181 -0.03995779 0.0026201808 -0.27209997 -0.44805896 -0.25522432 0.12359961 0.05266484 0.13080542 0.23793446 0.31688038 -0.02657843 -0.024707753 0.49562275 0.015520401 -0.35285163 -0.38161576 0.19621508 0.18521444 -0.19652727 -0.09702552 -0.08256296 0.21797138 -0.31579348 -0.12282889 -0.28273067 -0.15795557 -0.108918 -0.32582903 0.2415846 -0.19510375 -0.24136569 -0.16178499 -0.17451064 -0.045744974 0.11258447 0.0460987 -0.10539111 -0.060471393 0.20677762 0.5894331 -0.08625469 0.3186851 0.10938321 0.18944076
99233470 0.08319961 0.3276758 0.05969529 0.035809122 0.116480365 0.29818565 -0.26332873 -0.038570695 0.2857361 -0.08237832 -0.16025813 -0.2399447 0.28708464 0.0012313448 -0.22937469 -0.115842134 0.2871983 -0.1165472 0.3147388 0.17368084 0.31439918 0.42063922 -0.23186573 0.26553836 -0.30721098 -0.28296983 0.14993063 -0.047800083 0.104614235 -0.23232126 0.36083615 0.21799071 0.087593056 -0.18729241 -0.25069883 0.1838764 0.29278228 -0.13936341 -0.16264251 -0.08624407 -0.040894385 -0.21395604 0.15200269 0.021080824 -0.11404216 0.06598878 0.37146464 -0.20657632 0.028714553 -0.05934203 0.1465181 0.32167363 0.0029114163 -0.18782713 0.27819303 0.03278258 -0.10110368 0.026062429 0.031929776 0.017291483 0.068675466 -0.17993905 0.05584157 -0.22478355 -0.13036904 -0.049696945 -0.115406945 0.10879555 0.07574489 -0.07045564 -0.2888372 0.27803776 0.30762485 -0.21965055 -0.080904484 -0.20998307 0.057418022 0.25286356 0.3554443 -0.29526225 0.28189337 -0.12822431 -0.25281724 -0.0037433102 0.26330668 0.19762234 0.0702092 0.008855526 -0.11429043 -0.2787615 -0.14876632 -0.0220733 0.15652184 0.16281363 0.31881234 -0.18076658 0.11960487 -0.004872611 0.037462134 -0.2480669 0.26828393 0.25860602 -0.06814787 -0.1407972 -0.1612869 -0.08708277 -0.062177803 -0.10969676 -0.3462599 -0.41852397 -0.23430718 -0.46819174 -0.25402164 -0.14844185 0.35244474 -0.09335019 -0.3219234 0.0019241362 0.15872721 0.019404978 0.29322016 -0.2910499 -0.19573131 0.5041856 0.007966184 -0.394723 -0.13907184 0.060950667
14711982 0.07251489 0.009143907 -0.10558903 -0.021653712 -0.1816518 0.06802581 0.09273827 0.1879918 0.24273238 -0.22476482 -0.34470034 -0.0710417 -0.08010622 0.03730394 -0.31930435 0.07857427 -0.18852074 0.051926 0.12262975 -0.21526803 -0.01954012 -0.21537913 -0.16167535 0.14436725 0.1142287 -0.26758328 0.0513579 0.20204176 0.27837127 0.022508819 0.13221596 -0.24621609 0.114674814 0.043579422 -0.12499632 -0.13940449 0.3367867 -0.02355448 -0.15306872 0.26456058 -0.18639217 0.16838418 -0.09005739 0.12059948 0.25737596 -0.08380823 0.11315813 -0.0017323977 0.23761299 -0.40194175 -0.22549593 0.098152906 0.29466018 -0.10135661 -0.043624856 -0.07417696 -0.42018098 -0.41891217 -0.021512393 0.09071186 0.01249951 0.25788254 0.16720998 0.04466268 -0.07291646 -0.033839256 -0.47233966 0.0037814234 0.29236746 -0.05191388 -0.09799272 0.08365216 0.11617465 -0.044534437 -0.002102513 -0.086860836 0.21344145 0.22252156 -0.16279694 -0.40170017 0.032385398 0.06280352 -0.38607773 -0.17143852 0.37309122 0.5339111 -0.32259482 -0.18406631 -0.16656363 -0.025812563 -0.29265258 0.10479675 -0.19088128 -0.14301336 0.23055919 -0.2711285 0.2294693 -0.03881349 0.15088259 0.084622025 0.13831899 -0.04263339 0.11215826 -0.14475662 -0.2535575 0.24477212 0.192039 0.22717422 -0.43207315 -0.111494735 -0.093069844 -0.13763107 -0.004415231 -0.016839841 -0.17662948 -0.032852504 -0.06638482 0.048850257 0.07719103 -0.15689485 -0.226728 -0.18917261 0.12834406 -0.12580231 0.05916366 0.25896743 -0.003204528 -0.09935834
340376505 0.1732712 -0.03043143 0.0016008192 0.1400742 -0.029854156 0.10588433 -0.12257741 -0.15200222 0.06521939 0.10837987 -0.12361235 -0.2843009 0.048753988 -0.06285484 -0.3888811 0.22804971 0.25794905 -0.06629509 0.18624449 -0.033283867 0.16491562 0.14958854 -0.19959706 0.23458603 -0.13657963 -0.2871229 -0.2223153 -0.044844534 0.027884884 0.022789977 0.028065514 -0.075072795 -0.056866206 0.119046286 -0.10372479 0.3174141 0.2128222 0.12300144 -0.14964935 -0.36638027 0.009821096 0.01767958 0.02761498 0.13376765 -0.25744417 -0.10223232 0.020423712 0.19266172 0.016144982 -0.039066266 -0.21481284 0.46575156 -0.045264266 0.16159351 0.24021387 0.19455917 -0.13429989 -0.30838534 -0.10930888 -0.06862475 -0.026099589 0.1551766 0.3097067 0.15853146 -0.5668064 -0.041677993 -0.15868254 -0.024530707 -0.08070549 -0.14276299 -0.0010576441 0.034541383 0.07864969 0.37432885 -0.09691055 -0.17337106 0.07912121 0.17733857 -0.059199348 -0.17655388 0.2581343 0.033328477 0.109936245 -0.18839654 0.3075801 0.16425288 -0.111245774 -0.13472073 -0.27364737 0.13027331 0.21350269 -0.037588667 -0.044632148 0.100225635 -0.039058443 0.13348249 0.3463766 0.06577442 -0.1787163 0.12838879 -0.05638051 -0.08316788 0.3391489 -0.23567815 0.03081459 0.012482962 0.10737278 -0.097562484 -0.40280125 0.27693436 0.32502368 -0.14881612 -0.02499566 0.028365605 0.07672714 0.17480211 -0.18682545 0.23040637 -0.09098559 -0.25384936 0.12073939 -0.07283494 -0.060365196 0.028495613 0.29638857 -0.23030917 -0.083559506 -0.09339143
714051386 0.0923706 0.076754086 -0.014531792 -0.14021462 -0.025953952 0.027969053 0.015469149 -0.03129518 0.14452943 0.10632889 -0.027761586 -0.13165896 0.30275628 0.019378565 0.09050355 0.21100336 0.1141232 -0.30550826 -0.038950846 0.01420925 0.13250063 0.1120234 -0.391627 0.33211586 0.007132868 -0.3277465 0.009307498 -0.1043211 0.28272632 -0.060276773 0.20533797 0.0650982 0.30902305 -0.20023641 -0.046619844 0.26338568 0.38344386 -0.04699034 -0.06157897 0.050543834 -0.14807719 -0.008493601 0.11788086 0.15142973 0.034545276 -0.08580557 0.031061623 0.11479343 0.22358057 0.08866944 -0.009070196 0.504115 0.10203796 -0.1603838 0.09574778 -0.017483486 -0.2669955 -0.24843761 -0.020246154 0.31196997 -0.061540827 0.13887043 0.20220143 0.058610756 -0.3525635 0.061308347 -0.07818841 0.26686627 0.1646936 0.0450314 0.10718147 0.12938471 0.0722845 0.24941926 -0.001781338 -0.14491288 0.1498135 0.2086962 0.16273807 0.1419515 0.111868955 -0.040761795 -0.123261265 -0.0011921002 0.14713803 0.16370824 -0.13905719 -0.28207672 -0.25995314 -0.11611387 -0.014175541 -0.088894285 -0.10691236 -0.26445663 0.13879102 0.122787155 0.24161015 -0.07925337 -0.2126674 -0.14176705 0.16772568 0.20898756 0.23928271 -0.17619582 -0.20884342 0.13206446 -0.17744985 -0.21674319 -0.07560176 0.13280532 -0.16430822 -0.09539211 0.035418455 -0.0066530453 0.1417015 -0.2306449 0.00013595985 0.2312982 0.1432903 0.21463105 0.053699523 0.036812555 0.12681662 0.17743985 -0.037493527 -0.2589403 -0.14762029 0.19094029
590023803 0.16888294 0.027877362 0.14965826 -0.14424539 0.09123839 0.2559267 -0.23839954 0.157906 0.009037116 -0.08229396 0.066425376 -0.20065412 0.2314307 0.13059142 -0.19546145 -0.023758654 0.06904516 -0.25033295 0.20373796 0.10632053 0.29788268 0.055216454 -0.0155891655 0.05818602 0.17378987 -0.1461595 -0.15077303 -0.27577555 0.2543813 -0.21250749 0.12504725 -0.043237872 0.118096724 0.018832138 -0.030938745 0.14142437 0.5659905 -0.19301678 0.0955151 0.15900923 -0.2071737 0.23663491 -0.18684977 0.216718 0.01991354 -0.28540608 0.27733198 0.019379556 0.106778495 -0.01600915 -0.124281965 0.4456512 -0.24953397 0.16079582 -0.25743535 -0.1108314 -0.3248919 -0.082008064 0.08034106 0.07550766 -0.10141925 0.08053497 0.10535414 0.20592016 -0.36037725 -0.1551661 -0.22711149 -0.15691221 0.25411794 -0.1457004 0.061267555 0.06165992 0.061439212 -0.052864622 0.22523497 -0.0072578825 0.15698628 0.04295762 0.048927337 -0.10141248 0.16490072 -0.034147248 -0.13920118 0.005270105 0.27364933 -0.015755625 -0.20997757 -0.21407463 -0.16151775 -0.14326203 -0.075423 0.03546072 -0.09131034 -0.023227673 -0.13167176 -0.17795934 0.31248957 0.13032544 -0.074802674 -0.12021705 0.18073393 -0.10979798 0.18758608 -0.021736648 0.027106691 0.35354605 0.14925951 -0.17819671 -0.53884315 0.2803481 0.2297167 -0.21812181 0.35889414 0.1586281 0.39385942 -0.13201594 0.08501279 -0.07041821 0.23740625 0.006357792 -0.14022043 -0.37802547 -0.13928227 0.24424233 -0.048990548 -0.11213869 -0.09514178 -0.14697331
1557009919 -0.03494075 0.15318866 -0.018497536 -0.16123497 0.090391986 0.047824234 -0.17270336 0.15759166 0.17033394 0.094480015 -0.04363745 -0.113253504 0.3366511 0.23624575 0.113738716 0.19984367 0.08636251 -0.28813428 -0.12046205 0.19724414 0.20973857 0.119584836 -0.1349828 0.17150238 -0.08745614 -0.24326096 0.056602404 0.06252653 0.06486903 -0.18114266 0.1490782 -0.12136267 0.2652276 -0.17248194 0.046528634 0.3056039 0.5656836 0.011762812 -0.1334425 0.1596282 -0.11708001 -0.0711891 0.2107453 0.1446901 -0.0063477494 -0.13780437 0.2510877 0.05609699 0.22490862 -0.18528138 -0.10157396 0.39397803 -0.014132274 -0.0054132217 0.048299607 -0.3765437 -0.27497894 -0.23197833 -0.24469243 0.2929016 -0.101567015 0.304411 0.3502474 0.028238326 -0.38385203 -0.03928052 -0.025949473 0.12415124 0.22550926 0.13150926 -0.1651792 -0.0024142044 0.14438498 -0.04078032 0.021547036 -0.19808674 0.030786006 0.19410546 0.22411585 -0.10232385 0.110942416 -0.11228835 0.028530916 -0.08476646 0.23263742 0.07905012 0.22433777 -0.22792959 -0.24554276 -0.16720904 0.15003577 -0.27255657 0.04451436 -0.15063749 0.14932212 -0.10621637 0.30884728 -0.18435796 -0.09758245 -0.0019380731 0.26508212 0.30381334 0.25252387 -0.066411145 -0.31192562 0.16399415 -0.00861819 0.10187406 0.025834324 -0.029325336 -0.09523571 -0.19681373 -0.017975453 0.023047497 0.23967487 -0.06658689 -0.10452167 0.30132365 0.085607596 -0.0321708 0.18535702 -0.0987183 0.20479438 -0.012323594 -0.02446435 0.05720103 -0.13314185 0.16183516
2710541450 -0.20559894 0.20578468 -0.038780626 -0.50911885 0.024513064 -0.20604363 -0.105385415 0.22100626 0.15330938 -0.022955602 -0.21578155 -0.0070620547 0.33997643 0.1950802 -0.23340109 0.095555305 0.06789389 -0.22039555 -0.016637504 0.04604955 0.66874605 -0.20996211 -0.26107177 0.31874037 -0.1577928 0.003197954 0.020238036 -0.06069286 -0.18615505 -0.023028417 0.5138883 0.17213084 -0.115288325 0.20353755 0.2170128 0.5286491 0.3940093 0.20192716 -0.18882614 -0.22190663 -0.22238109 -0.16298772 -0.16628668 0.6218584 0.04824328 -0.14219765 0.36936113 0.28683096 -0.06239327 -0.00014477316 -0.32444188 0.48301065 -0.018056365 -0.20740385 -0.15119869 -0.1986285 -0.1885251 -0.3347873 -0.0792267 -0.1617635 -0.16776544 0.100301504 -0.08450414 0.19246434 -0.15910171 0.020533647 -0.08721381 0.04283887 0.2044084 -0.094353355 -0.1305004 -0.09060345 0.11950747 0.30763397 -0.21885958 0.26792887 0.19980995 0.21161819 0.2055039 0.022740878 0.15000136 -0.11422331 0.13178372 -0.0024316225 0.23171103 -0.1533601 -0.252853 -0.43638217 -0.07035792 0.0027775208 -0.2979096 -0.012033191 0.15715557 0.016780807 0.047952686 -0.1448947 -0.06617201 0.005549951 0.1405182 0.28290161 -0.06009443 0.078490846 0.17115697 -0.23458746 -0.034703687 0.03291375 0.2360361 0.02908454 0.14152466 0.22442307 0.20197795 -0.0039012781 0.056535706 0.052620247 0.2712107 -0.100085296 0.25032988 0.03999379 -0.28046435 -0.099401064 0.07605198 -0.36748216 0.1436401 0.08915048 -0.25293192 -0.00458078 0.047124136 -0.32604828
2105021 -0.08885937 0.058071736 0.03460832 0.17319511 0.062352948 -0.15833077 -0.013798103 -0.10769622 0.119185135 0.060403273 0.32129788 0.004610043 0.3387699 0.018194726 -0.102531515 -0.05854419 -0.043717235 -0.33720195 -0.17878558 0.088889435 0.067753896 -0.08038331 0.099448964 -0.087967426 -0.1795245 0.041918587 -0.09576197 0.045143217 0.2334678 0.16161834 0.1866803 0.20427726 0.34399244 -0.060510706 -0.037138786 0.109073676 0.23581992 0.42025504 0.007196462 0.15291096 -0.115226135 -0.09848757 -0.15184067 0.121180184 0.16547015 -0.103766374 -0.20776027 -0.16671602 -0.07325769 -0.0795507 -0.16076653 0.41143623 -0.2684508 0.03790943 0.15321037 0.124507606 -0.2427934 -0.49525914 0.21965112 0.04379924 -0.09964978 0.007551401 0.24833922 -0.11855772 0.010784054 0.1406312 -0.24857679 -0.012180193 0.18465124 -0.26728958 -0.026245888 0.42577976 -0.06570113 0.039193977 -0.09791824 -0.4057817 0.20847364 0.2489608 -0.098514296 -0.010431467 0.33725494 -0.20529202 0.059124134 0.090349644 0.14058326 0.014160624 0.047797218 -0.45494998 -0.105625354 0.23127002 0.12785761 -0.08903006 0.095697425 -0.33202246 -0.05524586 -0.015816776 0.37488437 -0.07124487 -0.19160488 -0.08904969 0.5921802 0.20936418 0.07847519 0.014189799 -0.2315873 0.22087982 -0.08849136 0.003861503 -0.2716664 -0.24307759 0.03321925 -0.2678985 0.13814297 0.029381156 0.21356624 -0.018381502 -0.51678693 0.10213332 0.16303708 -0.30082157 0.4980762 -0.15032159 -0.12124407 0.17013183 0.058496386 0.035006028 -0.22806829 -0.039633293
599745022 -0.043579962 0.10526833 -0.12592976 0.0948826 0.1426611 -0.032404166 0.04832155 0.036311544 0.3255335 -0.24198543 -0.13216034 -0.17795473 0.078125864 0.23849045 -0.16982913 0.15474191 -0.0022412096 -0.1720423 0.21287079 -0.14053833 0.33510062 -0.036802277 -0.058011193 -0.1878907 -0.3182276 -0.25341633 -0.1318071 0.07191405 0.12847614 0.021120723 0.2946048 0.4249808 0.055862702 0.13442348 0.09804178 0.4105156 0.21593915 0.055544574 -0.2989373 0.0815009 0.034422684 0.28133544 0.03210884 0.28382015 -0.15305147 -0.31285405 0.03829742 0.0010905622 -0.0021035145 0.05127298 0.051046643 0.12486071 0.2807735 -0.06448814 -0.13983034 -0.057598155 -0.19527155 -0.26202342 0.25099322 0.08045654 -0.016808508 0.37900817 0.32113877 0.022855757 -0.21357276 0.44138515 0.12285304 -0.22518529 -0.17870107 -0.034686703 -0.111719176 0.3882984 -0.13205723 0.21448639 -0.28935802 -0.20475814 0.10445312 0.1297558 0.25493628 -0.062870875 0.4547186 -0.36981153 0.012074845 -0.086936004 0.4494988 0.029883245 -0.3486199 -0.17234983 -0.082873106 0.13449295 -0.13503516 -0.0829937 -0.04123914 -0.1602606 -0.025476879 -0.06343111 0.15170309 0.18173455 -0.045710348 0.111994155 0.4418472 0.14503439 0.1104352 -0.27625954 -0.2255471 0.23087801 -0.14949384 0.03424178 -0.13491446 -0.17277004 0.14643222 -0.20410438 0.30889982 -0.009780965 0.27338836 0.19533259 -0.13202095 0.09934556 0.1607276 -0.037956543 0.18244919 -0.05712077 -0.08495487 0.15923211 -0.13879013 -0.10504476 -0.15579554 -0.006421047
450414092 0.07973987 0.1339439 -0.07310367 0.04028357 -0.111524396 0.2586577 -0.07271926 0.20851412 0.32546884 -0.049121503 -0.17739119 -0.48581332 0.23588659 0.22488478 0.10718101 0.20722608 0.046108257 -0.3091744 0.042148024 -0.06413301 0.025634935 -0.006600826 -0.2489128 0.32597506 0.2013452 -0.02066731 0.10051988 -0.2682325 0.18540244 0.12224432 0.32920957 -0.07482267 0.2310827 -0.090495944 -0.14538075 0.21570386 0.429793 -0.15813757 -0.06093563 0.012141163 -0.05015519 -0.028932692 0.10502358 0.49718097 -0.08670383 0.05960844 0.2443454 0.22235721 0.04589907 -0.14805144 -0.24339885 0.28702536 0.06224729 0.25745168 0.15971708 -0.10404469 -0.34457603 -0.39454144 -0.08167671 0.16970827 -0.033724327 0.10094566 0.4199631 0.007748348 -0.29839382 0.22160976 -0.012420934 0.08994653 0.07784403 -0.08594125 -0.19758885 0.30128816 0.19272248 0.04991793 -0.041097995 -0.11336161 -0.19445108 0.35212475 0.10784754 -0.2531324 0.0642771 0.07398817 -0.14841382 -0.042397212 0.20628434 -0.0667613 0.19325845 -0.33579472 -0.010787152 -0.2755279 0.11170423 -0.16883501 -0.13119766 -0.28122413 0.10961128 -0.025983308 0.091254845 0.031363323 0.07016219 -0.056649778 0.116122596 0.1531879 0.03580588 -0.07488331 -0.05415386 0.016747408 -0.09639964 0.05056782 0.19608957 0.12585033 0.07829059 0.08434024 -0.12598798 0.17932527 0.21497062 0.09972873 -0.1525726 0.10082923 0.08153701 -0.046034582 0.3768759 0.097750604 0.16489539 -0.04330641 -0.20993598 -0.11964618 -0.2110098 -0.038903143
2459169938 0.10683124 0.36849275 0.14498362 -0.03762454 0.22374986 -0.20641674 0.03993658 0.3167704 0.11301811 0.015769053 -0.05406345 -0.27429578 0.2815948 0.29709956 -0.080150515 0.1624107 -0.06605369 -0.10791852 0.22259922 0.11173943 0.17674184 -0.04312085 -0.09621353 0.2317 0.18711966 -0.1244417 0.35904968 -0.17565054 0.30384502 -0.18837023 0.07357249 -0.28466088 0.08656224 -0.20472911 0.03563377 0.23759195 0.17584081 -0.032892857 -0.099120386 0.06496974 0.014996935 -0.17334843 0.0024534303 -0.04148947 -0.10741013 -0.12164151 0.13201423 0.22608978 0.10952641 -0.1227214 -0.016896639 0.25644705 0.08416466 0.006552992 0.043599047 0.14407636 -0.37511265 -0.32274452 -0.11651767 0.11369945 -0.1887325 -0.11990062 0.05340817 0.039664328 -0.32324862 -0.055179644 -0.12414111 0.24748737 -0.0225357 -0.14799011 -0.04283154 0.02729764 0.06280517 0.120752715 -0.18786371 -0.09098915 0.07096909 0.28929514 -0.19412227 0.06964454 0.2488367 -0.21995622 -0.2510882 -0.210901 0.13075972 -0.17183346 -0.106434815 -0.44999063 0.04631712 -0.08736973 -0.12805337 -0.042402577 -0.10153618 -0.26097894 0.17520949 -0.14470284 0.11010041 -0.020261751 0.013605318 -0.1669424 0.3666801 0.42092064 0.09188526 -0.07338296 -0.040669654 0.22434598 -0.11898603 -0.20810667 -0.04779274 0.11661261 -0.01984802 -0.305808 0.14610855 -0.1281189 0.1947406 0.15279002 -0.23572288 0.19170894 -0.3482413 0.07423614 -0.25729996 0.11214203 0.12681165 0.18026873 0.09608957 -0.09723363 0.014491848 0.16193233
1059207842 0.003171401 0.057652507 0.4365144 -0.1627646 -0.04220054 0.016901568 -0.05146797 0.34529632 -0.12620705 -0.048324265 -0.25153717 -0.32529825 0.22076534 0.39249563 -0.12262206 0.25785026 0.061734557 -0.09929937 -0.039703842 -0.13077897 0.027317995 0.10696297 -0.10065396 0.3723224 -0.071362786 0.00835942 0.24099338 -0.23029983 0.058600746 -0.12706064 0.35675302 -0.33686203 0.055077173 0.12490586 0.060181346 0.304503 0.07663555 0.035120968 0.2729428 -0.07986619 0.016128836 0.16910623 0.08162735 0.32848242 -0.06969229 -0.08955169 0.13591003 0.09255356 0.20601329 -0.124633886 -0.092391275 0.2620504 -0.10093905 0.08016668 -0.00031083357 0.0014485279 -0.39912555 -0.24800572 -0.044734288 0.036748096 -0.072227016 -0.04080511 0.22862813 0.22320892 -0.10922986 -0.107569344 0.03772004 0.08322717 0.028138807 -0.2191666 0.18452582 -0.095035404 0.3636931 0.12334554 -0.074149735 -0.13709986 0.26843423 0.07999278 0.22528097 -0.28889245 -0.014242355 -0.080457 -0.018668327 0.11804826 0.16422641 0.18536305 0.09471183 -0.44827577 -0.2580956 -0.109570645 -0.19626102 -0.0014821837 -0.10098267 -0.0912565 0.034347657 0.12324354 0.50590384 -0.036815304 0.0183901 0.0680996 0.18594661 0.5189344 -0.13606219 -0.30752102 -0.059011273 -0.010020135 -0.055722997 0.15414982 -0.05187772 0.34222475 0.043019913 -0.4388887 0.3222581 0.15164249 -0.30430266 0.052896008 -0.030578464 0.34620538 -0.18595262 -0.0028337995 -0.25259054 -0.13116312 0.050910845 0.06561871 0.039282493 -0.004147033 -0.09767372 0.17858927
39935935 0.24938442 0.26678017 -0.0062739314 0.13158415 0.23412082 0.11267817 -0.16254039 0.0024634765 0.11410729 0.01395834 -0.33361232 -0.1530305 -0.0060605733 0.2403169 0.017623482 0.27132654 -0.0028488396 -0.14915712 0.1735129 -0.091605335 0.13797675 -0.30132657 -0.27977866 0.16369568 0.13473514 -0.07565566 0.15006033 -0.055668514 0.04838973 0.16409019 0.29870647 -0.014556027 -0.08701193 -0.17743054 0.14730692 0.39171934 0.09450156 -0.0031100556 -0.30843136 0.18127348 -0.27626857 -0.29525617 0.07117539 0.48314363 -0.005363676 0.19062825 0.1468558 -0.08707717 0.3940479 -0.11405654 -0.24132302 0.37178358 0.010540619 0.006016085 0.19757459 -0.13465823 -0.2798992 -0.3317136 0.1789191 0.025736373 0.056026828 0.0396985 0.36460978 -0.117171556 -0.080501534 0.049440958 0.006780222 -0.14476787 0.11150914 0.28204215 -0.23657343 -0.08059912 0.14393821 0.12471141 -0.014787859 0.12286376 0.14335628 0.13828667 0.30377048 -0.014841407 0.114285305 0.12177785 0.10121878 -0.022559855 0.29689118 0.34033376 -0.14169344 -0.057033144 -0.2157502 -0.092363775 -0.093463115 -0.15110824 -0.27243698 -0.24506176 -0.14126131 -0.122030765 0.5006151 0.43035913 0.014730758 0.1462088 -0.0644598 0.14148223 0.0342773 -0.13427533 -0.19568042 -0.065037616 0.11222671 0.06940417 -0.17148276 -0.19274229 0.07969721 -0.050276533 0.026736733 0.21375374 0.002872203 0.101965964 -0.13907322 0.032998722 0.09463162 -0.15135199 0.2823218 -0.3022002 0.08732172 0.12573797 -0.011254761 0.02715023 -0.21966225 -0.039860316
193700451 0.025668176 0.24534278 0.1025238 -0.07585407 0.20991468 0.06073142 -0.19805431 0.047275197 0.09470252 0.016152482 -0.12967075 -0.0073006554 0.107379496 0.30168504 -0.09817249 -0.062881164 0.03691356 -0.15028763 0.22368954 -0.015148479 -0.01091038 -0.15184598 0.118934266 0.23623897 0.07345631 -0.21052755 -0.035012413 0.020755691 0.28458017 -0.13892044 0.36553717 -0.10279174 0.01004219 -0.05426707 0.21567582 0.34966296 0.42512876 -0.073062755 0.11365276 0.009962906 -0.009638864 -0.27244547 -0.23634751 0.38644135 -0.04132931 -0.030001089 0.21338435 0.04788201 0.34055623 -0.23917203 0.08935229 0.29934946 -0.07522556 0.17063354 0.217745 -0.114799395 -0.25654718 -0.31200287 0.030944152 -0.10553638 -0.27979797 0.041233763 0.24202648 -0.08599162 -0.106931545 0.19203992 -0.13046007 0.06316711 0.2116961 -0.06800331 -0.07171241 -0.20637043 0.33863518 0.26392382 -0.25927973 -0.03163416 0.164559 0.044835914 0.101105504 -0.10812692 0.16867135 -0.05075479 -0.14988361 -0.024999939 0.25972968 0.30666324 0.13178167 -0.28697047 0.105079696 -0.16086216 -0.1251097 -0.11840822 -0.27513248 -0.23411833 0.092859276 -0.06439218 0.29482156 -0.021686867 -0.06364828 -0.029989446 0.35822442 0.020735182 0.110932276 0.08755006 -0.19210348 0.295481 -0.008810504 -0.10359949 0.015025728 0.08671229 0.21421432 -0.22590706 -0.12395495 -0.07475986 -0.024399053 0.077857256 -0.025873825 0.194791 0.17056319 -0.10831302 -0.021955194 -0.21315974 0.47592807 0.3234516 -0.13436612 -0.026730372 -0.0067503266 0.030822547
2437652922 0.17861049 0.057872865 -0.16461949 0.16658823 -0.24039797 0.06248221 -0.34926516 -0.24305631 0.08499068 -0.17885183 0.13841745 -0.022179976 0.2284032 -0.08102447 -0.07563477 -0.027022082 -0.15552375 -0.2443437 0.14310305 0.20679064 0.35587722 -0.13952868 0.021888087 -0.04927641 0.103661366 -0.0943166 0.2054843 0.24476014 0.3460824 0.15259016 0.20944357 -0.47578546 0.029332116 0.1318152 0.11567026 0.29932567 0.14367431 0.32703227 -0.01597914 -0.37617272 -0.112384334 0.079777904 0.03806016 0.30434263 -0.27633014 0.033178404 0.23797758 0.22717793 0.18956421 0.0028810825 -0.09185132 0.11762506 -0.04706626 0.08918907 -0.14643353 -0.122563474 -0.098340765 -0.09283784 0.4173381 0.18526357 0.34744033 0.24184762 0.092115864 -0.028972782 -0.14061065 0.17660464 -0.1279376 0.0065499633 -0.052255213 -0.14829534 -0.11286119 -0.14273758 0.17635028 -0.08165587 0.10290767 -0.1625546 0.1722157 0.3234521 0.12441187 -0.30623156 0.09165903 -0.01806286 -0.38496786 -0.06357931 0.04602626 0.04701851 -0.13910572 -0.19487211 -0.18550438 0.458019 0.17427197 -0.086984426 0.17576441 0.47983095 0.022186333 0.2263125 0.5533892 -0.17792276 -0.267166 -0.2510905 0.20467861 0.5884159 -0.07632544 0.091277055 -0.07142934 0.15225036 -0.15923743 -0.124014 -0.46216124 -0.1321898 -0.07270314 -0.027009604 0.19730046 0.07747538 -0.07090139 0.18267453 -0.31353405 -0.31443623 -0.083443135 0.15119578 -0.0014794283 0.23484868 0.40277788 0.4927402 -0.041541297 -0.03935096 0.24445775 0.18722387
2322065402 -0.033274572 0.119277276 -0.14891052 0.06545899 0.052838944 -0.07813962 -0.084685415 -0.08523907 0.1748408 0.0047871154 0.002096773 -0.17823015 0.18022452 0.25075972 0.080234095 0.23678143 -0.076235764 -0.07814249 0.10705816 0.07320223 0.12279676 -0.07613023 -0.27815816 0.096454404 0.15540396 -0.41693732 0.14106473 -0.08990807 0.21052109 -0.07375635 0.2957339 0.03571642 0.09713566 -0.09829669 0.20352562 0.39073402 0.28342563 0.042354856 0.031224629 0.0060710963 -0.07273419 -0.04033322 -0.19724561 0.25849086 -0.18523261 -0.091424026 0.08472383 0.08470701 0.20059815 -0.24345511 0.034055397 0.39088613 0.07427878 0.07566563 0.08265122 0.02390083 -0.2905109 -0.40042153 -0.1191252 0.070976794 -0.09814847 0.13280937 0.19061826 0.072651215 -0.30787808 0.06851607 -0.17522907 -0.04486824 -0.005246382 -0.10320686 0.12347767 0.13587902 0.045460477 0.044984393 -0.07201865 0.0835114 -0.0037917753 0.17407121 -0.12034079 0.07394503 -0.1971305 -0.10096926 -0.28180835 0.004375555 0.08108969 0.12863122 -0.07978049 -0.25555372 -0.2675891 -0.11238411 -0.0023151054 -0.04494625 -0.22206634 -0.26999238 0.26023236 0.017015256 0.19838804 -0.004952366 0.08207204 -0.12414784 0.2245515 0.29613075 0.15675756 -0.22810443 -0.08947614 0.28077075 -0.124310784 -0.29173905 0.09715008 -0.121862225 0.2707728 -0.21107708 0.14983636 0.19181877 0.08337947 0.031782277 0.13849704 0.20779684 0.011636089 0.20234276 -0.004538631 -0.08952948 0.06251119 0.11507064 -0.15926991 -0.047587913 -0.1480155 0.23330796
25227822 -0.062361214 0.07498514 0.25388235 -0.09246618 0.31493747 -0.1741679 -0.30750626 -0.05664376 0.0385304 0.15534218 -0.15679732 -0.082241714 0.06551809 0.12190734 -0.2889524 0.07698977 0.027694857 0.032674488 -0.05211345 -0.1595893 0.3594633 0.1938574 -0.032295678 0.41013572 -0.19395724 -0.13649715 0.09180524 -0.10051034 0.14852375 -0.08766507 -0.09237835 0.038928717 0.3026024 -0.023676196 -0.0391449 -0.08370926 0.0122258 0.27324447 0.07148718 -0.12603277 -0.33221787 0.1152169 -0.18582499 0.31710595 -0.16597794 -0.17744096 0.1350625 0.047598794 0.3090246 -0.07511197 0.118177205 0.30794722 0.099821955 0.11585733 0.12940536 0.12899417 -0.10266199 -0.48626274 -0.054848272 0.27735603 -0.1293353 0.0038052858 0.5194208 -0.25866237 -0.0398296 0.061772086 -0.09282581 0.061440866 0.17184606 -0.19774365 -0.06599435 -0.310296 -0.13926594 0.15000524 0.110905476 -0.23865893 0.07296524 -0.010278099 0.09488151 -0.17053019 -0.03270299 0.15752324 -0.030512543 -0.094398 0.36772513 0.3471341 -0.049757417 -0.30718157 -0.2998194 -0.13542493 -0.327109 0.3982793 0.048309352 -0.36266246 0.10647861 -0.31112686 0.31712374 0.086169556 -0.39678347 0.24023196 -0.1096661 0.07809517 0.059719842 -0.2668581 -0.12440652 -0.0059245727 0.19919871 0.36208272 -0.5214438 0.059840336 0.086493105 -0.18984707 -0.16767171 0.19787863 -0.03192415 0.2924319 -0.24424951 -0.0066947932 0.046373054 -0.09697738 0.1314778 0.2057897 0.20818558 0.26969004 -0.19313943 0.06947247 -0.38953933 0.21561801
480300122 0.34548792 0.08120979 0.13682579 0.06130546 0.032852054 0.14778197 -0.25516313 -0.00013165535 -0.16948132 0.0590685 0.35665947 -0.2101628 -0.0660677 0.0072080465 -0.10282682 -0.20122974 0.07257347 -0.044858433 -0.2741214 -0.22728968 0.16727303 0.042972818 0.20264271 0.49743262 -0.17480244 0.09375869 -0.29326755 0.06112099 0.12115067 -0.08528584 0.25866446 0.11795144 -0.28702462 -0.28194 0.44512618 0.48623058 0.14894797 -0.024834124 0.10119276 -0.0031087636 0.044173807 -0.05596881 -0.29203162 0.3661181 -0.15868875 0.24061204 0.15136085 -0.40814233 0.09148448 0.05567301 -0.07453648 -0.04404382 -0.26938248 -0.24318145 0.1402855 -0.076434955 -0.26387358 -0.6806284 -0.14454661 -0.26463315 0.071041964 -0.18625405 0.3794902 0.081595674 0.27911282 0.11129209 0.0063842405 -0.242068 -0.13662644 0.027356656 0.0044719973 0.21280847 -0.11709733 0.39764625 -0.062493812 -0.26760924 -0.23296665 0.12832713 -0.044645138 -0.36064798 0.28317964 0.32550246 -0.33480933 -0.065384224 0.28337774 -0.071302734 -0.14586546 -0.34823617 -0.31602898 -0.10868431 -0.08389993 -0.14259651 -0.07906555 -0.14594182 0.27747142 0.0071820673 0.19930665 -0.4305496 -0.4202759 0.034557544 0.25448048 0.2887538 0.20930102 -0.075257 -0.43484735 0.19252636 -0.060602926 -0.087149456 -0.17059039 0.0872326 0.01104962 0.09580829 0.07969583 0.21670647 0.27876988 -0.18564309 -0.2785325 0.08039782 -0.24947381 -0.056730695 -0.26563576 -0.08386162 -0.060155146 0.4030099 -0.004505248 -0.2559686 -0.34842107 0.13347366
27225245 0.00039199143 -0.04535983 0.21158518 0.09672251 -0.052317414 0.22523177 -0.12567376 0.074884735 0.41359532 0.09208523 -0.003466022 -0.37348258 0.3881437 0.20527154 0.030366715 0.34176716 0.4286534 0.13591929 -0.12010199 -0.18701094 0.120908126 0.16276151 -0.30288377 0.4973743 -0.206796 -0.3689935 0.22635074 0.09989398 0.23237097 0.02199815 0.2796161 -0.1625568 0.04771377 -0.059143554 0.14761612 0.24309829 0.49995267 0.032074977 -0.32901764 0.13033548 -0.012441455 -0.35893378 0.0033398445 0.19147636 -0.076215535 0.32347 0.13166754 0.077944085 0.40456778 0.15629654 0.041622262 0.099003255 -0.18880865 -0.06744301 0.027595982 0.13611837 -0.027337125 -0.5384368 -0.21286197 0.15343247 -0.006187618 -0.035482876 0.05427832 0.42320085 -0.19044638 -0.21797353 -0.36217234 -0.036736153 0.058643036 -0.049166705 -0.121671885 0.116897546 0.11073186 0.09181744 0.028656254 -0.19215548 -0.21482407 0.078211226 0.108143635 0.007066518 0.19160372 0.119857 -0.13091433 -0.049180537 0.122877665 0.27187574 0.010527622 -0.20467947 0.032704744 -0.18109055 -0.10884238 -0.1553909 0.049147528 -0.51240236 -0.08295321 0.04672725 0.14771408 -0.28949234 -0.098463096 -0.040448077 0.37598476 0.20234908 0.07564796 -0.17278853 -0.13553916 0.25016272 0.09257632 0.01682533 -0.066196516 -0.14075707 0.1527973 -0.22368626 -0.049567584 0.17291497 0.08171903 0.061867286 -0.012092073 0.24776097 0.07563669 -0.013724628 0.06437125 -0.25239584 0.22874145 0.19226122 -0.033275127 -0.10388334 -0.068184085 0.3799843
2831363550 0.3321772 0.1705926 0.042015247 -0.13994741 0.041153945 0.15033624 -0.042752326 0.049133867 0.32601106 -0.013771826 -0.09971585 -0.4852296 0.48396248 0.26680368 -0.27880198 0.2925403 0.016876329 -0.10922669 0.11968034 -0.0015288957 -0.0017181076 -0.003074251 -0.10849336 0.10235972 0.034749273 -0.35144052 -0.052757487 -0.01527319 -0.0080539305 -0.26982483 0.19246088 -0.06030347 -0.23208065 -0.30258754 0.162207 0.4180997 0.20446284 0.0980097 -0.23163421 0.13569658 -0.00059092813 -0.11739336 0.14383541 0.12624447 -0.07475295 0.14308316 0.119189575 0.09956684 0.13857655 -0.16086993 -0.12707973 0.0424096 -0.024311991 0.066139154 0.09141779 -0.020635676 -0.13858761 -0.17553566 -0.052183293 0.18565115 -0.18947864 0.16579995 0.14988178 -0.008525406 -0.27754658 -0.145066 -0.1767468 0.10061629 -0.1076407 -0.22863796 0.019872177 0.25043654 0.13619472 0.11541518 0.08407718 -0.21965681 0.15761296 -0.0038100025 0.08456968 -0.1701877 0.3080091 0.08315148 -0.03181511 -0.2192014 0.06403353 0.23508115 0.09439936 -0.08466313 0.11120699 -0.061197393 -0.0737858 -0.15914975 -0.0318433 -0.15261807 0.21280202 -0.1958333 0.3329617 -0.24976003 -0.007454503 -0.15169384 0.20396034 0.15983337 0.22134264 -0.15042895 -0.0443307 0.00080932584 0.08790172 -0.05197267 -0.23933999 0.13912298 0.19624083 -0.32360005 0.14083436 0.022753617 0.041151907 0.083066 0.10512359 0.1353926 0.10312593 0.0071133818 0.1905502 -0.0691617 0.18758701 0.39604896 0.10886802 -0.10443577 -0.22838378 0.04590113
19178668 0.18169601 0.16955352 -0.29482272 0.31907982 0.28969437 0.15204282 -0.12489364 0.3211066 0.07869203 -0.27671462 0.25663373 -0.07767919 0.04363675 0.3362813 -0.1818318 0.17251924 0.25249505 -0.018176416 0.20724016 0.156436 0.19083163 -0.20728105 0.30732623 0.43954974 0.32024613 -0.383368 0.40411636 0.37733406 -0.14102577 0.0908868 0.402047 -0.08952505 0.19459578 -0.08802414 -0.45237866 -0.30219346 -0.10642333 -0.110199966 -0.03666768 -0.17422567 -0.26373968 -0.088260554 -0.14565633 0.034006253 0.1351058 -0.04756482 0.4453747 0.052651916 0.07505933 0.18483311 -0.16982245 -0.027024698 -0.013367898 -0.07829213 -0.06702903 -0.6131343 -0.51400375 -0.46638003 -0.10115235 -0.71257716 -0.21763246 -0.07759355 0.67752457 -0.078214236 -0.3267552 0.049095828 -0.2732509 -0.041400734 0.44720098 -0.047765568 0.28576595 0.13817057 0.046471246 -0.004206977 -0.10236144 0.29551533 0.23345569 -0.025700182 -0.21618238 -0.16754963 -0.05387177 0.16067247 0.10662455 -0.035825558 0.5936285 0.13263884 -0.11846985 0.03545492 -0.06444811 0.063678294 0.2372046 0.039639216 -0.020108784 -0.19104351 0.22085606 -0.011331486 0.23880723 -0.35279188 0.050920893 0.4071207 0.07092901 -0.32070526 0.29269752 -0.17459026 -0.013541024 0.24223016 0.056146845 -0.27013066 -0.62441885 -0.119146585 0.047261614 0.09529335 0.055100188 0.14142977 -0.17720228 -0.0024699164 0.28127173 0.07167149 0.32828808 -0.015876686 0.043281984 0.10162327 -0.17606594 0.1621585 -0.33720666 0.14649932 -0.31921193 0.22236718
1955720384 0.14502367 0.26960483 0.008113222 0.07758563 -0.070536494 0.040475804 -0.023795033 0.09594846 0.117236346 -0.08090538 -0.24810436 -0.04445532 0.16657512 0.4043929 -0.16098523 0.15712683 0.18309774 -0.3350079 -0.008344464 -0.176717 0.0807 0.048773877 -0.13419807 -0.087012574 0.16537556 -0.082789354 0.015842104 -0.15985101 0.32002234 0.026853977 0.48330528 -0.08817571 -0.11489549 -0.33154875 -0.08201227 0.40680745 0.01963389 -0.1771793 -0.023474542 -0.028904313 -0.02109447 0.013942921 0.09206723 0.17745517 0.06446464 0.11273597 0.24481334 -0.033260092 -0.031609286 -0.30148435 -0.06560501 0.37829584 0.15588026 0.12739478 0.15994366 0.11966758 -0.2832657 -0.24132778 0.03627728 0.04029775 -0.31046548 -0.00055631617 0.060431685 0.020838032 -0.06920184 0.19332638 -0.013596956 0.04479468 0.16891949 -0.20253378 0.16202226 0.33736265 -0.29377404 0.32707465 0.06332484 -0.32911634 0.2276757 0.24759565 0.14666018 -0.049606867 0.274825 -0.007141576 -0.058222305 0.04010998 0.2514681 0.06828302 -0.054516 -0.17893659 -0.2827283 -0.104747966 0.07691707 0.057207633 -0.0141972955 -0.076722965 0.21903126 -0.10619333 0.50820535 -0.1087887 -0.21785873 0.060323235 0.27668038 0.20368831 -0.0078026564 -0.09143571 -0.007115121 0.028777156 -0.09427292 -0.35578546 0.02616895 0.18262023 0.06761682 -0.17715901 0.10747291 -0.11931566 -0.02662536 0.12616493 -0.09371506 0.09090047 -0.00756934 0.082065456 -0.22559768 0.058842234 0.21032758 0.23480101 0.0467873 -0.15130882 -0.3009778 -0.07496906
31069840 0.12575904 0.07291182 0.15513372 -0.01642453 0.05148983 0.14926033 -0.13268325 -0.010274637 0.26164153 0.10975096 -0.14013097 -0.10901776 -0.013564493 0.35323468 -0.14657797 0.2141015 0.07276968 -0.059416912 0.2911325 0.038028482 -0.0140472585 -0.24086192 0.07539688 0.24721736 -0.09944139 0.24884239 0.10200185 -0.3170918 0.1446966 -0.27746546 0.121426485 -0.15376268 -0.21743381 -0.23295042 0.017351832 0.36982542 -0.0446003 -0.0336572 -0.20474705 0.2676802 -0.21856464 -0.29236197 0.022230482 0.395515 0.111772254 0.04379722 0.15824644 0.17692824 0.18879654 -0.08174435 -0.1233897 0.6389757 0.19426696 0.025867598 0.0011267187 -0.15678565 -0.37093234 -0.42711517 0.03761291 0.25285763 -0.06146515 -0.08880322 0.44057912 0.14855629 -0.20291938 0.12897938 -0.11364361 -0.07978217 0.033009034 0.06627551 -0.00082820456 -0.39837682 -0.11082779 0.25112942 0.293443 0.094161764 0.054088008 0.21218678 0.028622217 -0.17715283 0.036188114 0.05681885 0.3583132 0.04880631 0.26035833 0.2552425 0.2561939 -0.04859901 0.040988624 0.09352963 -0.004170298 -0.103187405 -0.17523062 -0.0594946 -0.15572761 0.018808097 0.44661373 0.049719077 -0.13532066 0.09431101 -0.09517974 0.08874656 0.16863513 -0.14904721 -0.19497806 0.15423045 0.10217063 0.17097914 -0.3032854 -0.47779247 0.06436839 -0.17733178 -0.025455397 0.1908199 0.124046154 0.19605923 -0.29812163 -0.0793754 0.08771003 -0.17625275 0.31322345 -0.24113354 -0.06841991 0.07563802 0.026730899 0.0985024 -0.31278524 0.21607116
170276973 0.20699832 0.3621339 0.07021508 -0.079911254 0.12924777 0.054156292 0.11859037 0.075141236 0.36078283 -0.0052479156 -0.04500539 -0.3465794 0.13156295 0.51057774 0.083887465 0.23249146 0.13303578 -0.10826308 -0.12323932 0.06357321 0.109785244 0.015879348 0.00061546493 0.2190224 -0.17958848 0.048084628 -0.18966746 -0.21859023 -0.03523036 -0.19782864 0.111354746 0.17247993 0.26781604 -0.19486167 0.121278256 0.17470093 0.154366 -0.1721811 0.0038671733 -0.16348386 -0.016759824 -0.39988062 0.16292588 -0.038698286 0.120524436 -0.30309388 0.045985147 -0.13904232 -0.16283947 -0.16431808 -0.010436478 0.5001194 -0.08324167 0.19644828 0.095822565 -0.03522224 -0.45340082 -0.26511213 -0.06888208 -0.15383293 -0.22143252 -0.04357931 0.42454565 0.21133374 -0.21814004 0.27001733 0.033434372 -0.0062440136 0.1852342 -0.14054415 -0.20299721 -0.22640124 0.030707832 0.1690114 -0.08504095 -0.029586347 0.6016011 0.106070675 -0.02046428 -0.033946127 0.09418104 -0.16079745 0.08247697 0.03536026 0.05687284 -0.0024442398 0.59289056 -0.16110311 -0.16891557 -0.08688068 -0.20170346 -0.037930038 -0.059221983 -0.049327612 0.11415777 -0.08737202 0.17434761 0.05947868 -0.25967616 0.029153058 0.06708469 0.16291682 -0.072331384 -0.26356643 -0.22920696 0.28736973 0.01143183 -0.24736075 -0.33149934 0.00079894095 0.020656738 -0.17345461 -0.038411323 0.24152553 0.09321706 -0.047917273 -0.016009115 -0.13995351 0.0416488 -0.07814579 0.19321813 -0.06302879 0.07990789 0.23505408 -0.05394758 -0.10791449 -0.38866505 -0.09425744
181892978 0.0020982185 0.11406719 -0.13918373 -0.08378343 0.26079673 0.21809043 -0.089542545 0.16396579 0.03898303 0.024442222 -0.25755894 -0.24633072 0.16416864 0.11840626 -0.27058613 0.07816885 -0.03577685 -0.08952393 0.17603073 0.021648267 0.17994678 -0.12575655 -0.23028874 0.27709982 0.47815773 -0.13979796 0.055317998 -0.20625788 0.4091558 -0.13255784 0.110123955 0.21540916 0.31734008 -0.0019064171 -0.06509427 0.07726838 0.25634497 0.006656201 -0.33857822 -0.15829986 0.16833484 -0.22590354 0.046957634 0.25285542 -0.2165844 0.07380691 -0.35844567 0.20688246 -0.0373098 -0.019182472 -0.30925593 0.0750962 -0.16701654 -0.5206608 0.06779026 0.12532829 -0.48249507 -0.15780325 -0.100781724 0.29707712 -0.034250047 0.31457365 0.14641602 -0.09637428 -0.3283534 -0.0452498 0.20656379 -0.15431932 -0.05262542 0.20442061 -0.275284 -0.042607773 0.0963755 -0.09872402 -0.23721585 -0.067225896 0.026026124 0.28142297 0.0063499063 -0.0117895845 0.33392462 -0.063364305 0.033703204 -0.3486249 0.24753967 0.30499935 -0.09733128 -0.4313647 -0.40298137 -0.1878156 -0.1512286 -0.039664246 -0.0869128 0.21734063 -0.0009095797 -0.38744262 0.26566696 -0.082349375 0.16740046 -0.17465286 0.10523296 0.07465448 0.2972266 -0.111764975 -0.40550664 -0.015761685 -0.18080558 -0.042592317 -0.08096128 0.008376482 0.14742911 -0.17288347 0.22827752 0.106607005 0.16363986 0.04552086 -0.08208369 0.34342504 -0.21704686 -0.1847099 -0.116246946 -0.018407313 0.22306125 -0.094290964 -0.14824593 0.14273396 -0.3227569 -0.07124748
23747654 0.16474213 0.101882756 -0.081895985 -0.057351273 -0.030739158 0.07801123 0.19425537 0.13175926 0.07127282 -0.046601623 0.11631122 -0.17489351 -0.0025870888 0.46183068 -0.12169511 0.17832267 0.20714225 -0.28301248 0.30113748 -0.37197372 0.37511256 -0.027598944 -0.07737005 0.092390426 0.11744552 -0.045477845 -0.1463045 0.0422671 -0.04759466 -0.2467546 0.13046347 -0.23419996 -0.028271886 -0.3375976 -0.056742247 0.11374824 0.33784252 -0.086755194 -0.002426028 -0.07861703 -0.21369813 -0.2184868 -0.16478482 0.4239708 0.10306536 0.024426334 0.15566316 0.10203247 0.21145773 -0.38784876 -0.03246522 0.15268621 -0.054672536 -0.0062530264 0.119685896 -0.18987434 -0.36953294 -0.3090904 -0.22533253 -0.06561258 -0.2744188 0.05344066 0.42395517 0.18929115 -0.013491735 -0.26067376 0.20267318 0.104797855 0.1220873 0.17315072 0.05079059 0.041938484 -0.05822417 0.020126682 0.08471353 0.058770668 0.15055797 0.047944892 0.1506646 -0.4061855 0.19356005 0.094939254 -0.12964141 -0.4472878 0.20468704 -0.25756672 0.047580298 -0.117549255 -0.14355415 -0.045913246 -0.12743546 0.00592033 -0.19284004 -0.06744948 0.27542368 0.1285219 0.19044341 0.26875645 -0.16112801 -0.25074312 0.14628398 0.22606505 0.37808925 -0.13694857 0.025467556 -0.09785637 -0.07102308 -0.0050438084 -0.16014819 -0.370364 -0.22696146 0.3154226 0.024947358 0.3746736 0.25969613 0.0032899291 -0.14819804 0.15730819 0.15300645 -0.018940346 -0.0448377 -0.028313674 0.27159694 0.45117554 -0.08127235 0.13201559 -0.26907533 0.3107648
157996080 -0.08376167 -0.12899347 -0.07868206 0.027986227 0.33164617 -0.11799681 -0.41347924 -0.13817865 0.07511315 0.03328721 0.16719918 -0.14655916 -0.08227674 0.21135734 -0.015368833 -0.016634809 0.084588595 -0.049354717 0.09196041 -0.12185105 0.19620693 -0.029307779 0.10826126 0.22112522 -0.06513138 -0.13703911 0.36183038 -0.19901508 0.38945916 -0.21749921 0.19856457 0.03892466 0.23175316 -0.012682591 0.06673714 0.25370222 0.23059079 -0.331292 -0.17902039 0.15570152 0.09512882 -0.08582134 0.0024434533 0.14623915 -0.06844079 0.010389479 0.2520865 0.3066336 0.10683399 0.036979552 -0.0039237984 0.18551494 -0.14314082 0.26033843 -0.07070311 -0.25587097 -0.5040443 -0.28764692 0.25550836 -0.040072475 -0.29745045 -0.11118347 0.22636151 -0.03670865 -0.23574364 0.252221 -0.34555808 -0.37890044 -0.33369896 0.1409683 -0.06316482 -0.16008763 0.43915913 -0.043628823 -0.004315758 0.12210859 0.16954511 0.06479067 -0.17512783 -0.22021982 0.25742748 -0.11859993 -0.1831492 0.028475018 0.18268551 0.13157254 0.18315898 -0.18913497 -0.23859686 0.07238472 0.1310856 -0.0762841 -0.15198964 0.07660737 0.15461332 -0.08270983 0.4555148 -0.14392726 -0.01767608 -0.0713209 0.2561252 0.22050592 0.16281343 -0.0736312 -0.08976503 0.31546032 0.035227373 -0.32876083 -0.23255768 -0.07851927 0.13188918 -0.08460552 -0.051697467 0.37673533 0.24032843 0.05583798 -0.04791334 0.34539118 0.068909295 0.053355645 -0.04209424 -0.20555088 0.25977522 0.1549627 -0.16883685 -0.2310944 -0.15161091 0.0039631417
23935607 0.22930616 -0.030957196 0.029989427 -0.2572994 0.085045196 -0.14037178 -0.074838065 0.26582587 -0.003314079 0.107388444 0.10872848 -0.13004115 0.18506102 -0.039826892 -0.14106084 -0.17853792 0.11199613 0.16114151 -0.0014132669 0.035856407 0.35843036 0.19795129 0.05809088 0.25286406 -0.039548486 0.12209223 0.1423829 -0.095417194 -0.05542728 -0.2130153 0.25162727 0.0038288543 -0.24599466 0.09063371 0.19778013 0.3610081 0.41198027 -0.20267934 -0.16517721 0.050853025 -0.30548257 -0.14969446 -0.061101533 0.37692484 -0.36436707 -0.06588425 0.20284598 0.07914185 0.015128125 0.22815344 -0.1322448 0.13933468 0.0619435 -0.034059666 -0.13785224 0.0032997732 -0.36138898 -0.47987166 0.12447509 0.104941055 -0.18831977 -0.011980817 0.31097794 0.063593276 -0.26309916 0.18579525 -0.031019093 -0.14097184 0.24712898 -0.20416048 -0.15509826 -0.30248433 0.090270996 0.36591437 -0.034685105 -0.039672244 0.3057116 0.14032981 0.19199185 -0.20905444 -0.056294374 -0.20176922 0.103068426 0.095518164 0.41101566 0.15718709 -0.0981216 -0.035501365 -0.11732707 0.18627314 -0.12400633 -0.30623406 -0.055514947 0.13553876 0.044797804 -0.059671134 0.2572796 -0.16529556 -0.40585846 0.078354076 -0.28383678 0.007391622 0.12328195 -0.50003994 -0.2956753 0.1348755 -0.01406228 -0.05810432 0.07601667 0.0032805677 0.25741476 -0.067173764 0.17876512 0.31917876 -0.07399869 0.08276848 -0.1399532 -0.1426729 0.2419435 0.2127326 0.22491205 0.12869902 0.0477532 0.10826548 -0.13870719 0.2763041 -0.2708615 0.06379991
23411203 0.1231843 0.10866272 -0.0023629118 0.102536075 0.15753415 0.203685 -0.25398487 0.2518784 0.089035764 0.14749321 0.08049931 -0.16854109 0.12446687 0.20481113 -0.117162265 0.31406978 0.026152005 -0.10555202 -0.08561798 -0.08130672 0.3531722 -0.014060313 0.019886298 0.15461007 0.0028701888 -0.1807665 -0.025821215 -0.24397847 0.04320579 -0.005357859 0.10355689 0.03586382 0.003320367 -0.27533194 0.013781865 0.26391885 0.4508269 0.07609275 -0.018947527 0.17132173 -0.14918931 -0.1374265 0.06562811 0.3475153 0.16368029 -0.22299977 0.118556745 0.23408498 0.028025193 -0.16882925 -0.13691777 0.24007943 -0.07451968 -0.016663397 -0.20415242 0.14210524 -0.28687093 -0.28308344 -0.30915838 0.12843774 -0.068239 0.015391373 0.4711272 -0.12051007 -0.02010551 0.21473451 -0.1376486 -0.02390673 0.10519997 -0.32179117 -0.06577814 -0.13622722 0.048091196 0.2136092 -0.062161066 -0.023416828 0.10830205 0.44758832 0.25624654 0.013659724 0.09616711 -0.30335048 0.051582303 -0.14758043 0.256763 -0.151976 0.012101164 -0.12813935 0.06017156 -0.17786981 -0.06593909 -0.25287217 -0.079686925 0.023073237 -0.19998282 -0.081780255 0.18323325 -0.05594511 -0.2535279 0.14631306 0.28123438 0.09645673 0.28448826 0.042721987 -0.09873431 -0.017503997 0.11193941 0.09239317 0.069996 -0.38027048 -0.24070193 -0.16906217 0.2824957 -0.12939711 0.26461697 0.020198537 -0.16547632 0.3956461 0.20079899 0.0019058419 -0.22021851 -0.15216725 0.19363147 0.1676166 -0.15568021 -0.032659262 -0.07754339 0.03850465
247696871 0.16987762 0.17856053 0.1458849 0.02563074 -0.14189349 0.33710104 -0.39401528 0.16387707 -0.09496296 0.11743232 -0.17512538 -0.31503767 0.02519655 0.24993266 -0.15020122 0.030253889 -0.25638333 -0.19884367 0.33001825 0.17110018 0.2822712 -0.16192828 -0.18396987 0.3143404 0.42686456 -0.14242285 -0.057453003 0.14220265 0.31561506 -0.46272793 0.3874576 -0.18956237 0.2882755 -0.085738875 0.055834666 0.050210536 -0.18992113 0.069118455 -0.13647246 0.06547343 -0.0064504733 -0.022947049 0.015637502 0.17161514 -0.044184536 0.031021226 0.035592616 0.20098945 0.15820906 0.17360604 -0.15580718 0.23800544 0.11511681 -0.13776143 -0.11208834 -0.049883116 -0.32602608 -0.14754279 0.01839565 -0.0845223 -0.08383075 -0.043165017 0.5440553 0.118184984 0.025744624 0.25905892 0.094511494 -0.1003483 -0.09594087 0.32033083 -0.08198521 0.19608851 0.0016471894 0.34108064 0.035784885 -0.30714208 0.19488436 0.29579833 -0.11280128 -0.04762272 0.11708003 -0.40067807 -0.07603754 0.117954135 0.49427047 0.46413273 0.05720063 -0.2918295 -0.3269108 -0.09202795 -0.31577402 -0.029304426 -0.20054184 0.2646498 0.025692632 -0.16946967 0.25147069 -0.026813876 0.18223825 0.078321 0.026121132 0.23447247 -0.04075057 0.10560269 -0.24784495 0.1755522 0.085209884 -0.03255614 -0.31362018 -0.16823988 0.4098723 -0.33851722 0.22036827 -0.32595754 0.18057758 0.1759503 -0.08785097 -0.16954052 -0.015130792 0.03789668 -0.07402274 -0.42005527 -0.05985236 -0.10588959 -0.34636557 0.18789354 -0.00808859 0.05234826
138294089 0.0075612105 0.2990516 0.03866734 0.1315157 0.25403103 -0.10032233 0.15575594 0.015145707 0.329082 0.19042666 -0.109873146 -0.16745816 0.32155913 0.4440494 0.059615195 0.21985132 -0.008002403 -0.0774052 0.0026570135 -0.32865158 -0.08126748 0.022340558 -0.11707006 0.1066557 0.1543336 -0.081585765 0.15316537 0.03535403 0.25525427 0.04268442 0.029276727 0.09932905 -0.082976826 -0.058187574 -0.16431732 0.16535021 0.09832586 -0.2869381 -0.31380907 -0.07920767 -0.20955436 -0.18351892 -0.053238057 0.09806926 0.13578434 -0.09170467 -0.010387449 0.31928775 0.1779256 0.11855502 -0.28839254 0.11407801 -0.08577047 0.41440845 -0.15543169 -0.07630366 -0.2659784 -0.7328577 -0.19407022 0.08959705 -0.107564546 -0.02020654 0.44815293 0.20146075 -0.42218572 -0.057045702 0.07811024 -0.0915407 0.11372251 -0.03473445 -0.008672262 0.4598237 0.029051809 0.27866346 -0.03228833 0.081488125 0.12846181 0.3885345 0.37356055 -0.27743006 -0.042077594 -0.123415165 -0.14149167 -0.031985704 0.14735484 -0.08291435 -0.060303833 -0.17961328 0.16610439 -0.14165676 0.06790144 -0.13354485 -0.016116885 0.31226972 -0.002213384 0.0031144645 0.3482691 -0.14100528 -0.14743078 -0.57260084 0.28329092 0.20030028 0.3769296 -0.07465075 0.0031493613 -0.2965042 -0.045525715 -0.13658111 -0.035976026 -0.06663418 0.10991623 -0.33959147 0.3004488 -0.025060877 0.15452157 -0.12913962 -0.037785828 -0.055532373 0.18706997 -0.029866057 0.3800119 0.005142101 -0.07420702 0.14724204 0.020786788 -0.03542276 -0.018956946 -0.30433616
376679416 0.27264407 0.21542363 -0.06159425 -0.108171225 -0.09907303 0.29130208 -0.18704668 0.20875962 0.43936384 -0.05397157 0.03850195 -0.41741675 0.2351209 0.4085258 0.12386096 0.1034089 -0.03820039 -0.24246967 -0.11985281 -0.10212624 0.028959086 -0.0037036208 -0.08200584 0.14223938 0.22564587 -0.21354005 -0.21854039 0.051559146 0.15229218 0.05834391 0.071418695 -0.007651048 -0.10025878 -0.23615472 0.01880817 0.24313945 0.10710074 -0.13825491 -0.2827075 0.13372862 -0.13176322 0.08837045 -0.10029446 0.03017597 -0.0847352 0.010337804 0.06987905 0.004513979 0.018507402 -0.34594056 -0.043520436 0.6370715 0.17994928 0.27561235 0.042609908 -0.2410595 -0.28820553 -0.11554045 0.06519594 0.038854416 0.24068046 0.2613972 0.15883717 -0.02717183 -0.29067838 0.035177823 -0.4327247 0.1607946 -0.15488738 -0.30353174 -0.02580957 0.0044481494 0.072191946 -0.08748191 0.351475 0.092755646 0.17768344 0.23618378 0.46602488 -0.11485222 0.17673771 -0.09938743 0.12021937 -0.37259942 0.31547326 0.18016027 0.11061319 -0.27605504 -0.3225187 -0.28392383 0.3202499 -0.17196089 -0.17424992 0.1798527 0.017608007 -0.11667071 0.17079306 -0.08842125 -0.22480877 -0.021849774 0.069779366 -0.022352116 0.4439924 -0.2136904 0.21486494 0.37828913 0.10718534 -0.22003622 -0.10618632 0.37092632 -0.25911418 -0.13275911 0.15779942 0.1305486 0.22076431 0.22737353 -0.2845834 0.18916176 -0.10608417 -0.13259105 0.12070904 -0.081273325 0.19478562 0.23351951 -0.27503568 -0.106480755 -0.0349043 0.15314548
254941287 0.12778574 0.032300618 -0.17377901 -0.1496708 -0.10041659 -0.015087472 -0.10011072 -0.017784378 0.15282597 0.0022909823 -0.19751056 -0.18978587 0.2467358 0.15570246 -0.23806214 0.110437974 0.12826236 -0.26525125 0.20654756 0.009553352 0.041399617 -0.039585564 -0.12574741 -0.01448413 0.054131497 -0.35401666 -0.00864378 0.120923914 0.2856362 0.0018208168 0.28818515 0.07206468 -0.022440061 -0.15767956 0.12020125 0.49182668 0.51667947 0.061680537 0.11217561 0.26177883 0.04090251 -0.32163808 0.11659243 0.36780465 0.005804868 -0.1041125 0.14622046 0.00035561193 0.055602003 -0.0930341 -0.016299753 0.269961 -0.16323385 -0.15687557 0.1579996 0.15613745 -0.5111795 -0.22412217 0.08826202 0.0007787117 -0.18615375 0.28888002 0.394765 -0.12023335 -0.28897792 0.0074989516 0.13070492 0.24483688 0.07221749 -0.1434733 -0.026409315 0.05080007 0.2595653 0.07743171 -0.10629605 -0.4192134 0.4145392 0.048489556 0.3450388 0.071343265 0.23857997 0.019961897 0.12838666 -0.025769934 -0.051382627 0.14554079 0.09323182 0.06500129 -0.3251926 -0.046690647 -0.068892024 -0.02477934 0.025496673 0.044547927 0.2285226 -0.05826809 0.25230697 -0.010022808 -0.17732775 -0.18880607 0.045153454 0.07723946 0.30427182 -0.024375057 -0.23797953 0.24412674 0.08103413 0.02199357 0.070082426 -0.02163606 0.0339193 -0.21755742 0.039873295 -0.072451144 0.2944813 -0.09726483 0.07850197 -0.1545524 0.20800363 -0.0411569 0.154342 -0.30598065 -0.076260775 0.16691403 -0.22098604 -0.075599894 -0.026136745 0.20306557
135132634 0.2869342 0.1625264 0.059370488 0.109059975 0.116036475 0.226698 -0.4190094 0.09146186 -0.17277297 -0.19796231 -0.49253887 -0.06886165 0.10041655 0.18894723 0.13391156 0.20729157 -0.048234817 -0.25618693 -0.04921146 0.12582108 0.4469462 -0.22454238 0.023857165 -0.1860012 0.35658833 -0.12571944 0.08262508 -0.07606909 0.31994596 -0.41243905 0.26524696 -0.16655092 0.13698648 0.0026678382 -0.289984 0.113952 -0.044649616 -0.22149675 0.24484617 -0.17958917 -0.04714937 -0.101952784 -0.031895045 0.4437429 -0.039115906 -0.027811866 0.2931675 0.0018813043 0.13901299 0.12463427 0.16246676 0.12433111 -0.15543087 -0.20336516 0.16136684 -0.025345735 -0.32317442 -0.17467877 0.009799927 0.09320891 -0.114121564 0.034529295 0.45086503 -0.016675182 -0.16369018 0.2605954 0.013021631 -0.014219819 0.3080255 0.12889075 -0.0584506 0.08553486 -0.18310854 0.2391048 0.017664874 0.022305438 0.24208665 0.019706236 0.19120738 -0.16488819 -0.10641261 0.10904002 -0.02615486 -0.05759648 0.3811908 0.30085808 0.26515582 -0.03236098 0.061968938 0.31089553 -0.50431144 0.30271935 -0.12075955 -0.116692565 0.10799517 0.08704758 0.3379231 -0.13313195 -0.16402869 0.21165177 -0.061882205 0.36062038 0.06284971 -0.14894864 -0.37575725 0.29305807 -0.031630855 -0.2829272 0.059080377 0.033660788 0.17003924 -0.19649161 -0.09851941 -0.05918691 0.33172792 -0.0156731 -0.31644678 -0.09327533 -0.13287324 0.059734985 0.016531346 0.071202815 0.25117454 -0.111494884 -0.010967679 0.3540987 0.05885251 -0.010663279
2408638574 0.042196684 0.095033355 0.11036786 0.18603241 0.15675189 0.03953329 -0.24690783 -0.037544608 0.18820736 0.1087996 -0.25636777 0.14285806 0.1356438 0.21268791 0.10542535 0.07746197 0.046783093 -0.26972702 0.043937523 0.031515807 0.20700428 -0.037785348 -0.3428652 0.15001567 -0.032231808 -0.048111644 -0.0065958523 0.0028219959 0.33280754 -0.1916407 0.2078742 -0.03379037 0.110778734 -0.0303679 0.16920497 0.06683952 0.07955348 0.008714209 -0.019586813 -0.38764325 0.10988903 -0.026290487 -0.2256034 0.23610793 -0.023797002 0.0049725533 -0.025839126 0.13748987 0.24452256 -0.29395 0.18198703 0.20123817 -0.3397031 0.18090124 0.008333398 -0.20191558 -0.31245807 -0.21352176 0.24540918 0.4731474 -0.13519818 0.24663107 0.36136872 -0.10491738 -0.13133101 0.25315627 -0.07721241 -0.08324755 -0.11131185 -0.2795801 0.057204634 0.0035055175 0.21751283 0.22053069 0.21055502 -0.07899003 0.16368595 0.20396039 0.0009447307 0.34098193 0.28298566 -0.008055448 -0.24478601 0.103633925 0.28678063 0.29566774 -0.07159874 -0.24577853 -0.12429611 -0.0804617 -0.40382463 -0.4602804 0.17291343 -0.102512985 -0.10094256 -0.14620365 0.34894764 -0.18385634 -0.080181055 0.25701523 -0.13223231 0.19401881 0.56886005 -0.12707227 -0.13772993 0.09283474 -0.17704311 -0.32852787 0.010611216 -0.024497196 0.17717804 -0.11506263 -0.09297346 0.28435907 0.4620991 0.04290083 0.1654144 0.2987835 -0.08222651 0.12720081 -0.2279902 -0.20984189 0.008062871 0.17670265 0.17760888 0.040614888 -0.06419354 0.42381674
178183112 0.28491387 0.2889769 -0.108624354 -0.14806785 -0.33323532 -0.19960396 -0.5000503 0.30217436 0.16456506 -0.22569273 -0.40677893 -0.04288349 0.22100201 0.057320047 -0.420751 0.06366018 0.040107217 -0.14583856 0.017362824 0.020606048 0.24367082 -0.23283742 -0.101387985 -0.09320933 0.15805176 -0.34498674 0.10769468 -0.10759729 -0.05704643 -0.46243823 0.11962718 0.054110844 0.4161499 -0.22079936 -0.543416 0.32284802 0.0823561 0.1865422 -0.28422248 -0.04109862 0.0035420442 0.0096127195 -0.22772403 0.23939678 -0.042288627 -0.30712995 -0.17260887 0.028069554 0.09857682 -0.18323219 -0.119334616 -0.04967014 0.5113383 -0.021282913 0.20850462 -0.04206921 -0.23145446 -0.18621558 -0.03164986 -0.07619033 -0.044404473 0.3120174 0.20555073 0.21406004 -0.3016683 0.3321567 -0.18337618 -0.21641423 -0.09236406 0.06402644 -0.11316469 0.15907143 0.01608926 0.3154306 -0.104720026 -0.12766595 0.1163115 0.16887039 0.2902031 -0.004756943 0.42171884 -0.058900498 0.15618734 0.19087102 0.06932745 0.4532647 0.0015248364 -0.126028 -0.14773077 0.17911625 -0.6265325 -0.018730314 0.025630418 -0.13967985 0.019905215 -0.17402755 0.32297504 -0.062129337 0.09311374 0.15490392 0.3381702 0.20814566 0.19818729 -0.22351778 -0.330882 -0.09080369 -0.14331755 0.18492502 -0.3542916 -0.06977499 -0.23106807 0.24381004 0.055686556 0.09843689 0.23852861 0.16752413 -0.3547822 -0.05488017 0.076055214 -0.20639849 -0.0151020195 -0.026484665 -0.4389672 0.31832233 -0.07579281 0.028230708 0.03933883 0.12229203
35466620 -0.014415988 0.42994946 0.21622592 0.034913912 0.04451561 -0.26991588 -0.10357 0.14435011 -0.111684315 -0.09311351 -0.07981032 -0.16604884 0.075760745 0.17234698 0.2708538 0.3305893 -0.20848384 0.037500296 0.02515828 -0.28755906 0.40371367 0.13998577 -0.1613719 0.2915447 0.29238328 -0.1575879 0.429265 -0.09289703 -0.1113527 -0.0705412 0.10291355 0.11321917 -0.009149215 0.03872908 -0.0026856193 -0.18175241 0.1360177 -0.0891441 -0.3552606 0.044812918 -0.2769153 -0.17655803 -0.2392479 0.3928387 0.01566209 -0.13282514 0.22703955 -0.13160451 -0.22604056 0.17183726 -0.34469554 0.048338607 -0.15287131 0.17959921 0.0928955 -0.34410736 -0.18510833 -0.47360533 0.2541785 0.031076826 0.29545262 0.19314396 -0.08103427 -0.32246166 0.041296612 0.1458076 0.07449083 0.15081598 -0.1465947 0.14626454 0.16085607 0.6034117 -0.13370118 -0.2694225 -0.13091867 0.08795028 0.24335393 0.39273894 0.27792943 -0.4844647 -0.45763943 0.04979377 0.09892879 -0.25675228 0.33510035 0.43594217 -0.34129038 -0.6681866 -0.07176788 -0.0027874005 -0.19577208 -0.15284912 -0.13794298 0.10139538 0.011937422 -0.267638 0.43424243 -0.23120733 0.21627986 -0.21215282 0.06463007 -0.01601076 0.38143438 -0.30934817 -0.11746933 0.07230485 -0.20973279 -0.14016819 -0.48748535 0.14399388 0.10162285 -0.06413448 -0.09615094 -0.24350537 -0.10224157 0.25553644 -0.08927395 -0.09965122 0.08428236 -0.40471888 0.2156963 -0.10788079 0.1049961 -0.032001942 -0.19251572 -0.0009599505 -0.11562771 -0.15919836
36951856 0.4826636 0.008052023 0.25111324 0.19530559 0.24687533 0.11060176 -0.2661479 0.0853029 -0.1983919 -0.1319151 -0.2611993 -0.2024919 0.23699552 -0.017115077 -0.16505545 0.05589729 -0.041380066 -0.4000314 0.091826625 0.14950918 0.109850526 -0.16784477 -0.13398059 0.034130454 0.32977894 -0.010858628 0.15344389 -0.027071316 0.06311663 -0.43119657 0.30208927 -0.2725303 0.3201592 -0.103099436 -0.35075328 0.09200219 0.3843261 0.1037118 0.11232938 0.03399543 -0.14929219 0.0036170396 0.13540484 0.2564216 -0.28680745 0.020593004 -0.18733184 0.060769487 -0.017650284 0.0042964844 0.0964008 0.2474692 -0.0015142155 -0.30597085 0.18649113 -0.10343781 -0.28374588 -0.4159782 -0.15009227 0.06947282 -0.008615828 0.12021296 0.32784876 0.07387264 -0.09123944 0.00046136428 -0.115816295 -0.14308897 -0.050957486 -0.1510799 -0.11029497 0.27341327 0.05454198 0.22304459 0.14754984 -0.35136667 0.103978336 0.08841552 -0.13500492 -0.113869324 0.20981134 -0.23062004 0.18106967 -0.007919238 0.31050166 0.2298959 0.027586093 0.15525271 0.06657891 0.2537749 -0.11694666 -0.10836627 -0.13049625 -0.22696933 -0.14231116 -0.27339736 0.40117663 -0.04618597 -0.33492622 -0.08161455 0.14658032 0.3744525 0.33349976 -0.020373594 -0.20112702 0.3040712 -0.1974945 -0.3563097 -0.068199806 0.1304972 0.18619826 0.07938463 0.14554949 0.10420812 0.0037829434 0.11400718 0.021529716 -0.002127277 0.17769958 0.07305474 0.011405855 -0.16978678 0.28682333 0.1901917 0.09979448 0.033251528 0.1011841 0.18300222
26373938 0.062722564 0.28626335 0.09793594 0.35000327 -0.005988489 -0.23959865 -0.4701572 0.17695925 0.16179116 0.01983022 -0.18713008 -0.14806363 0.15087633 0.2195158 0.07575909 0.32558784 -0.09407027 -0.09003407 -0.040247187 0.13650312 -0.120105326 -0.11418819 -0.4160974 0.03566299 0.31070587 -0.16863807 0.0741492 -0.050105058 0.16584708 0.028632917 0.30184573 -0.039519448 -0.35894722 0.036477823 -0.053189185 0.4070144 0.45597652 -0.12529057 -0.024297917 0.101221636 -0.30845496 -0.14684582 -0.24456796 0.3000863 -0.11065138 -0.07721871 0.26443982 0.009370283 0.18854079 -0.37344578 0.06076995 0.22906813 -0.20347166 -0.2380474 -0.091954954 0.035624813 -0.40629306 -0.24729 -0.24707714 -0.108834304 -0.07087484 0.12177853 0.0751771 -0.11226508 -0.030452205 0.029902726 -0.233201 -0.022778638 -0.10668019 -0.013019418 0.0880953 0.23589934 0.14820077 0.21781418 -0.32743397 -0.008718459 0.21385951 0.099588096 0.12126628 0.17185946 0.1164513 0.248972 -0.027383357 0.0881151 -0.039928116 0.0153965475 0.0010893871 -0.31040913 -0.23570342 -0.21752928 -0.045035474 0.42821142 -0.43410888 -0.0074950657 0.030342968 0.24118623 0.33699954 -0.17795478 0.054281794 0.18772921 0.3917259 -0.10337639 0.19166763 -0.35599992 -0.1829068 0.13938724 -0.12773688 0.19229613 -0.22214924 -0.14477265 0.27374694 0.055248767 0.12413716 -0.24563582 -0.12040337 0.1228567 -0.35298422 0.074424095 0.15384759 0.048515975 -0.041037142 0.17503716 0.21157359 0.18192306 0.009493798 -0.15630797 -0.18600164 -0.05754321
79459832 -0.09452527 0.14937307 0.12732565 -0.18556081 0.07643689 0.16123824 -0.28415352 -0.11045232 -0.036663376 0.1571954 0.025407562 -0.4844481 0.34472674 0.2604229 0.055319965 0.12348603 0.15871966 -0.0803679 0.08502166 0.3597033 0.09459723 -0.012538415 -0.092109926 0.19113223 0.03618293 -0.21420732 0.08079272 -0.09334694 0.0064014755 -0.08679761 0.018002255 -0.12992519 -0.021543635 -0.26758114 0.1104847 0.12971812 0.05182168 -0.070286155 -0.09113005 0.09228885 -0.17676191 0.22707862 -0.0541336 -0.14450184 0.03770548 -0.13498718 -0.097212836 0.06753863 -0.07678499 -0.14555831 0.1610899 0.44473052 0.15855952 0.17539556 0.2093356 -0.14753273 -0.6082487 -0.50296795 0.04308255 -0.0011893754 0.0135063585 -0.085073605 0.2918372 0.07988221 0.11731357 0.02357631 -0.15758851 -0.05173564 -0.058580406 -0.030623913 -0.25029635 0.023310164 -0.06786858 0.022681948 0.017724 0.0012823002 0.4109623 0.23535298 0.31815585 0.098862 0.19335136 -0.25404057 -0.07770396 -0.116337456 0.05123821 0.19792429 0.15349497 -0.5077491 -0.22549574 0.043641757 0.14486396 0.007983784 0.06675991 0.23194593 0.26766622 0.10501391 0.497988 -0.10465894 -0.13272123 0.25085866 -0.06470753 0.22112784 0.2687309 -0.29736814 -0.18154989 0.1988329 -0.315428 -0.39467674 -0.101842694 -0.063254535 0.16492908 -0.24898855 -0.017905107 -0.029756363 0.41269234 0.13239214 0.012823084 0.12692079 0.055531733 0.12722677 0.2698618 0.072857164 0.13413388 -0.15721034 -0.13377282 0.12321453 -0.29931912 0.066422634
187138183 -0.024738133 0.30385116 -0.11154243 0.123739146 -0.095112 0.08455597 0.1535739 -0.12577713 -0.079199806 0.079897165 -0.089486904 -0.33422834 0.12568462 0.4327176 0.18277799 0.18959913 0.13429926 -0.14856936 -0.08168955 -0.13264751 0.21247052 -0.20326631 0.09089888 -0.22041166 -0.043472547 -0.18357493 0.025313832 -0.29860795 0.2478539 -0.20949738 0.22882533 -0.17215905 0.017684266 -0.25491104 0.058482625 0.350471 0.16723046 0.17330079 -0.1431179 -0.16774668 0.05106276 0.10651717 0.029690027 0.2520766 0.1966914 -0.21656731 0.23319453 0.27878976 -0.3369894 -0.30002 -0.23630375 0.37728205 0.15422629 -0.10905992 -0.18527909 -0.09714494 -0.11962457 0.012188352 0.0019305442 0.14113429 0.27820766 -0.15777944 0.42000133 0.051391356 -0.30054483 -0.18938418 -0.26660988 0.38425237 -0.07455458 -0.33574417 0.01839264 0.14990272 0.1366806 0.64726675 0.12582783 0.0023900953 0.108334 0.25326073 0.34565532 -0.11320996 0.24871933 -0.28448546 0.05648331 0.048570793 0.3800459 0.038532898 -0.2802354 -0.10663775 -0.28408885 -0.023787934 -0.12431137 -0.13984993 -0.09899812 -0.0031293745 0.29484197 -0.01711347 0.57833076 -0.11120821 -0.0530856 -0.06770165 0.27336508 0.3243213 -0.054671552 -0.20868985 0.047838524 -0.07360815 -0.106838845 0.045490485 -0.07330821 0.13274555 -0.48213294 -0.30733916 0.20495805 -0.082493946 0.21818179 0.10695679 -0.27577966 0.23143078 -0.11703014 0.069472566 -0.19389853 -0.07886364 0.041242413 0.21735297 -0.27419007 -0.023682324 -0.53232414 -0.29721662
410748351 0.10562507 0.13064125 -0.020295637 0.05933517 -0.06029207 0.14422822 -0.04936577 0.20189191 0.17018916 -0.12489637 0.020144207 -0.34621364 0.25073737 0.08817399 0.16184884 0.15817544 0.010015636 -0.2130629 0.11700043 -0.13827895 0.11069039 -0.093015954 -0.27176383 0.3923633 0.16530018 -0.08861759 0.05806893 -0.38848612 0.14183827 -0.018329408 0.3476363 -0.10573546 0.16032337 -0.10968742 -0.13120924 0.20678627 0.33883202 -0.14018753 -0.13350098 -0.022947546 -0.08745821 0.006905739 0.15688087 0.48312238 -0.046569634 0.014140997 0.17475429 0.16867913 0.11124377 -0.0932604 -0.13524741 0.2549998 0.020423288 0.20694263 0.036950868 -0.035720635 -0.35649726 -0.41658697 -0.08842705 0.07012523 -0.047520954 0.13083307 0.45469514 0.1027541 -0.37787193 0.23583938 -0.017125707 -0.106429234 0.034180593 0.047104646 -0.07578847 0.34882873 0.24946061 0.13188148 -0.11759083 -0.15808274 -0.11170642 0.41517457 0.029530656 -0.18807368 -0.010145407 -0.012062116 -0.054272212 -0.017843263 0.29868114 -0.090141356 0.09110451 -0.3414925 -0.071516715 -0.17148787 0.063130006 -0.15810604 -0.14759685 -0.28893378 -0.0038334383 0.04883408 0.12293453 0.006560619 0.03303815 -0.11739854 0.15845953 0.12525518 -0.014256512 0.043635875 -0.13324882 0.009085254 -0.10452153 0.077941544 0.1996052 0.25461662 0.025417024 0.11197921 -0.05898235 0.14016701 0.2130751 -0.004469367 -0.13143115 0.15249988 0.067009486 -0.07878031 0.15672013 0.02901257 0.14467582 -0.0125401905 -0.20429899 -0.14909352 -0.23979774 -0.10305194
162266849 -0.097222924 0.48400152 0.15533775 0.05067218 0.11198986 0.25382644 0.07200457 -0.23982103 0.12947929 0.12934567 -0.1567986 -0.36194634 0.1035076 0.2053031 -0.0052279844 0.059102528 0.39863375 -0.103042066 -0.027003532 0.0014695578 -0.07932926 -0.16454467 -0.086063966 0.2822593 -0.005686226 -0.077499524 0.05010154 0.04686381 0.15040365 -0.028241087 0.12505205 0.014786053 0.11789074 -0.21880075 0.20072779 0.23788878 0.16395402 -0.10199066 0.11939356 -0.056527022 -0.10481052 0.060415555 0.04491589 0.554972 -0.17243509 -0.3440935 0.19145094 0.07838769 0.048990827 0.057728607 -0.16645977 0.5144329 0.008113266 0.12866202 0.20492762 -0.0063411933 -0.46449035 -0.46310234 -0.033574697 -0.14350133 0.020700874 0.06467737 0.3959921 -0.060571134 -0.27255547 0.010096609 0.06694828 -0.04022749 -0.008387098 -0.14943169 -0.27711383 0.19498825 0.35440114 0.2524705 -0.37745577 -0.10331641 0.382352 0.34732398 0.15721153 -0.033173755 0.047017038 0.048474 -0.11235668 -0.09870375 0.25122005 0.099208936 -0.058177985 -0.037647765 0.035966553 -0.19855043 0.010658044 -0.1474292 -0.106809184 0.15762357 0.08678203 -0.33202308 0.19403034 0.095060825 -0.061327513 -0.35721684 -0.14204614 0.31434777 0.11254332 0.025144048 -0.21810864 -0.0005491459 -0.09176196 0.027258618 0.15925896 0.027791837 -0.051099524 -0.1343011 0.10936853 0.18657269 -0.06237414 0.29657632 0.084402494 -0.032941524 0.33582723 -0.060010944 0.22520298 -0.35890338 0.07036735 0.16597106 -0.34467024 -0.03069356 -0.1803979 -0.18047841
64980891 0.14285757 0.062077604 0.18114139 -0.030094566 0.016564488 -0.1455012 -0.20927243 0.080083944 0.1691057 -0.09663696 0.010773262 -0.2176621 0.16193779 0.21031815 -0.0086503215 0.19874129 0.08741842 -0.2214355 -0.030378547 0.036052965 0.14141993 -0.070121974 -0.27822977 0.36370137 0.050999526 -0.27051482 0.2750287 -0.1780966 0.40560234 -0.16322657 0.28122485 0.03832216 0.16047911 -0.23896228 0.0742187 0.2922067 0.30235618 -0.070563115 -0.07492922 0.043938424 0.10877237 -0.13587238 -0.048232045 0.020847587 -0.1533673 0.0041572144 0.060445413 0.29137787 0.10860742 -0.06280806 -0.105576865 0.013531411 0.025534691 0.19881788 0.10405316 -0.09187861 -0.35767543 -0.30963573 -0.07016163 0.09776297 -0.15191525 0.08573029 0.14442918 0.061230738 -0.3024279 0.22032619 -0.11190329 -0.0004965941 -0.023360956 -0.23690751 0.06496679 0.024072107 0.15956242 0.12937942 0.0011018547 -0.1478124 0.1971833 0.24712767 0.02749113 -0.20515688 0.22761182 -0.22841926 -0.01847724 0.02280153 0.20864747 0.21918657 0.0059180656 -0.2079356 0.07248118 -0.14831105 0.06672623 -0.1710703 -0.07616925 -0.13751973 0.021317514 -0.14300163 0.19674137 0.028314035 -0.04029941 0.009114552 0.20309395 0.27137217 0.14054614 -0.028042244 -0.059437647 0.2197274 -0.1270724 -0.20704845 0.027339568 0.24980402 0.013796744 -0.06580164 0.03882828 0.15400836 0.26079088 0.13427326 -0.15965448 0.24555227 0.07462767 -0.13519742 0.011856198 -0.013877671 0.27460447 0.2409714 0.12790413 -0.094904 -0.175034 0.015805898
189467550 0.1603932 -0.23484373 -0.01332876 -0.034738977 -0.027360454 0.090188995 -0.24184617 -0.06349056 -0.36953864 -0.018208222 0.06807772 -0.13875659 -0.18065357 0.16475129 -0.30483922 0.36962348 -0.07374068 0.43759903 -0.30335087 -0.090077944 0.105419844 0.025897611 0.09940076 0.35056096 -0.0067346487 -0.06627624 0.18848264 0.3844379 0.2627867 0.14831349 0.055110738 0.07107236 0.106784254 0.14378239 0.15698907 -0.086817466 0.38359404 -0.0715494 -0.17472778 -0.18034174 0.09298497 -0.05402745 -0.35715908 0.06326779 -0.25980204 0.076762415 0.09601178 0.04878682 0.12415398 -0.22839843 -0.018517377 0.0981491 -0.15651503 -0.10354894 -0.0347044 0.19253531 -0.2931593 -0.5219211 -0.28949443 0.38910705 0.029985545 0.34497365 0.32859185 0.17812824 0.3633038 0.0616337 -0.25425446 -0.15986039 0.32803968 -0.4079679 0.13031864 0.28459045 0.037595555 0.45947477 -0.003358673 -0.09568051 0.4482657 0.34617195 -0.003174304 -0.4674274 -0.018773824 -0.15236378 -0.07769655 0.073720835 0.26001135 0.10923057 -0.20387514 -0.120375596 -0.24521413 -0.25952932 -0.19648795 -0.32555687 -0.40864608 -0.28991258 0.35551193 0.11815426 -0.3001843 0.113547176 -0.17303377 0.0026559462 0.049625665 0.072884515 0.38887423 0.05027773 0.12067319 0.18443054 0.013410351 0.11090597 -0.36898476 -0.29685697 0.15228254 0.16710094 0.36969554 0.4104709 0.0393031 -0.11404787 -0.33187225 -0.0014867486 -0.2048242 0.0839645 0.098320216 0.10191059 0.04573376 0.33485737 0.21043369 0.09070336 -0.17919415 0.23703104
35084627 0.24796183 0.1234746 0.14077619 -0.26201895 0.043087192 -0.18448251 -0.033096008 0.27698526 0.2511993 0.114674576 -0.30565915 0.039309666 0.017641503 0.073897384 -0.22877161 -0.20569688 -0.12004739 -0.02076452 0.13347293 -0.020772325 0.24291785 -0.07020013 -0.08261377 0.33058032 0.0105090095 0.21248326 0.19167621 -0.107874826 -0.03550766 -0.23661864 0.27941135 0.20091887 0.042753704 -0.11241191 0.12176565 0.18305075 0.4517465 0.1020322 -0.1309581 0.13015327 -0.21274365 -0.44224817 -0.29138112 0.21858574 0.18448773 0.1805122 -0.039492488 0.25442114 -0.0031234552 -0.028574588 -0.34026536 -0.10380718 0.17055254 0.078055836 0.20499009 -0.049940933 -0.31221563 -0.38377562 0.02983237 0.05318173 -0.16836895 -0.07070566 0.5488319 0.28990313 -0.17866977 0.15740256 -0.09482388 0.018095521 -0.087939344 -0.12418887 -0.07956028 -0.11134136 0.06875534 -0.07297483 0.008857326 -0.18023656 -0.15297465 0.28517836 0.11235618 -0.2917741 0.09322431 -0.027997939 0.048787124 0.08543175 0.110687576 0.27614194 0.2597692 -0.14275584 -0.18806885 -0.057407934 -0.06354438 -0.1449367 -0.050196234 -0.08054332 0.37111884 -0.07015019 0.52854997 0.28851655 -0.28315777 0.21185923 0.12826933 0.19470187 0.17184734 -0.4691371 -0.4022625 0.21186051 0.10782311 0.055802416 0.03343663 -0.15777813 0.16675253 0.10157989 -0.049634933 0.16068065 -0.10107844 0.02633846 -0.11458884 -0.25949645 0.19579656 -0.09544538 0.19876012 0.029487988 0.009200692 0.12645699 -0.08053588 0.23305401 -0.31306288 -0.090107225
77182888 0.21962944 0.28878483 -0.07212061 0.07967704 0.054940876 -0.10381356 -0.23191467 -0.000980595 0.41582328 0.037867334 -0.039145287 -0.31879717 0.13970801 0.18230034 -0.15398882 0.067379445 0.3339126 -0.07604288 -0.07457003 0.02381962 0.20381336 -0.09861387 0.10656534 0.26524386 0.037638243 -0.36091173 0.11358479 -0.2858763 0.2700778 0.048036147 0.07996178 -0.07847676 0.09485838 -0.12432879 0.059966207 0.5218679 0.18154016 -0.20329392 -0.103830196 0.22163543 -0.12343181 -0.22394569 -0.2039989 0.22609784 -0.15061699 -0.061451443 0.11910039 0.2594436 0.07708975 -0.105726786 -0.07480347 0.10420273 0.28058672 0.03402322 0.15686533 0.11985102 -0.39338756 -0.2950137 0.11070326 0.010820282 -0.28918558 -0.14064743 0.24880964 -0.24518864 0.015265596 0.0055271 -0.17121251 0.16080749 0.19125542 -0.12310395 0.05442235 0.30859062 0.30780482 -0.10801615 0.12253027 0.102276586 -0.005045288 0.39714774 0.09251714 -0.10419865 0.053876378 0.11292177 -0.40917775 -0.1745606 0.07166858 0.08849895 0.08896863 -0.26053724 0.11037373 -0.08041023 0.068867914 -0.23579603 0.007404641 -0.2795595 0.03237293 -0.047188405 0.3903834 -0.14896527 0.020533325 -0.1549071 0.20098153 0.19479807 0.053756174 0.3475611 -0.042304195 0.14981711 -0.15228139 -0.1936931 0.038449664 -0.04731472 0.040595967 -0.21813497 0.12706764 0.31770474 0.15148155 0.057488147 -0.2532607 0.25543573 0.12437195 0.07759338 -0.2971218 -0.12950347 0.12736605 0.17654249 -0.02778397 -0.24897388 -0.1348997 0.37791482
1580228064 -0.2340568 0.15598683 -0.23148079 0.10502346 0.22141197 0.19436938 0.29485855 -0.1396966 0.07827347 0.061122168 0.20426369 -0.12091292 0.21513666 0.32126644 -0.29531637 0.24493256 0.12511721 -0.07285094 -0.2698292 -0.21888947 0.004851815 0.090993725 -0.14522539 0.13655502 -0.22057642 -0.105269745 -0.08315085 0.06704411 0.38630253 -0.29041815 0.2409816 0.028237352 -0.07233204 0.05799436 -0.20610946 0.26626801 0.36878005 -0.06077846 0.14135613 -0.22260305 -0.16956145 0.08078755 0.04000672 0.26273242 0.09669679 0.037150968 -0.20713577 0.10092798 0.118523896 -0.08721844 0.11319458 0.123239025 -0.24603392 -0.4197779 0.13178365 0.055430673 -0.5013977 -0.28859258 -0.06961945 0.36882228 0.17446175 -0.06649216 0.15120055 -0.18746702 -0.012077976 0.022725243 -0.1934554 0.14311026 0.06293977 -0.20469809 0.064069755 0.10382061 0.018969942 0.16403104 0.066789754 -0.21602489 -0.01123678 0.42526197 -0.07820271 -0.121569134 0.12098237 -0.13414961 0.115838796 -0.043209963 0.27113155 0.14090617 0.06955141 -0.22734126 0.06242406 -0.45149374 0.08252998 0.098939106 0.197544 0.04042463 0.26515648 0.052732475 0.5734689 -0.12981066 -0.2641442 0.006003838 0.34559032 0.0026977456 0.479713 0.04084651 -0.31207556 -0.036968466 0.17531833 0.243189 -0.13231322 0.08778007 0.03872938 -0.10440061 -0.029399987 0.20330071 0.28604105 -0.22940825 -0.491072 -0.07469883 -0.0009822639 -0.30299512 -0.11435392 -0.14267595 0.054693013 0.27840805 -0.28539616 -0.05057185 -0.4770132 0.10700369
1116121759 0.32229543 -0.09538682 0.22226593 0.03481174 0.033753537 0.057194352 -0.20802698 0.12826166 0.104583554 0.051042918 -0.26170865 -0.20650563 0.046040192 0.08409625 -0.08368058 0.27623302 0.34873712 -0.16008805 -0.014255252 -0.01191926 0.49066272 0.17317319 -0.21298498 0.17431098 0.06659174 -0.52645266 0.2908183 -0.15865798 0.27732456 -0.21050298 -0.11934965 -0.074326195 0.12076113 -0.14108948 -0.13794746 0.27171272 0.1387792 0.20855296 -0.34020254 0.0005279805 0.09872875 -0.009035212 0.078576766 0.18150625 0.0081545245 0.083462864 -0.05462912 0.073266394 0.047593985 -0.1571714 -0.036334895 0.24590874 -0.13003777 0.07552166 0.23481381 -0.10880532 -0.4430154 -0.030219635 -0.17546588 0.12349852 -0.0035955217 0.03270087 0.00769916 0.24343449 -0.112160884 0.0359718 -0.23422608 0.1428453 -0.17502189 -0.020686956 0.04856237 0.32989824 0.29726228 0.23813167 0.09700133 -0.24987806 0.14502168 0.11134859 -0.14262326 0.016478617 0.32900703 -0.0413962 -0.26087472 -0.04611607 -0.016132455 0.11198489 -0.017719219 -0.13690625 -0.21134098 0.06479182 -0.094176956 0.040690012 -0.25711438 -0.46399269 0.05970077 -0.21507266 0.56189847 0.122085616 -0.112834156 0.011750734 0.46239692 0.14066605 0.17207895 -0.16902804 -0.3140357 0.114402205 0.17931734 -0.2961342 -0.32982895 -0.16332386 0.044643357 0.12485202 0.1007567 0.28441232 0.3142022 0.045945223 0.093159296 0.3028838 -0.044776775 -0.052857157 -0.12848403 -0.0070387246 0.3953754 0.058977768 0.07358202 -0.037032906 -0.20781723 0.045401942
413779729 0.4461562 0.012044342 -0.10403597 -0.33064768 -0.2515118 -0.021540558 -0.022525968 0.3248268 -0.25150016 0.022028804 -0.048532475 -0.26303673 0.26437175 0.28545955 -0.114251845 0.06909422 0.09816603 -0.27584052 0.038426787 0.05919856 0.27700818 -0.0934596 0.26312354 0.10026578 0.25800025 -0.026609657 0.18005662 -0.118206784 0.31564352 0.25330454 0.20603113 -0.044240378 -0.26723424 0.19570467 0.020107493 0.30013177 -0.04105499 -0.23434842 -0.33274847 0.15689841 -0.20471092 -0.1898073 -0.19358873 0.39485618 -0.4143813 -0.0060084583 0.100773044 -0.09485456 0.29229343 0.46044892 -0.49961677 0.11478558 0.09725816 -0.08611883 -0.19876714 0.014491894 -0.2599508 -0.4452208 0.033578012 0.15817976 -0.004298643 0.08362449 0.1551861 0.023096835 0.098675534 0.06966607 0.105618924 0.15562302 0.052132525 0.112102844 -0.06785127 -0.32312122 -0.21066941 0.08417363 0.107853875 -0.07952454 -0.10113106 -0.08143096 0.23472154 -0.20463903 -0.19717482 -0.34238088 -0.20228381 0.06969419 0.21429193 0.22756445 -0.28104204 -0.28779992 -0.23999894 0.45212564 -0.35987177 0.05064208 -0.013100288 0.042293273 0.19111198 -0.4004638 0.37049398 -0.044180017 -0.15980037 -0.16977595 -0.032906942 -0.17469423 0.13164984 -0.058583494 -0.4193123 0.23077832 -0.33577493 -0.14233556 -0.31925353 0.06917173 0.20482475 0.18975759 0.047150943 0.45513687 0.44172668 -0.2151846 -0.30076945 -0.21801035 0.31294945 0.2161009 -0.08509932 -0.1090083 -0.016756361 0.29675052 -0.04521372 0.19061522 -0.19737126 0.3722842
436502521 0.11813335 0.28870258 0.029797189 0.25968012 0.29340267 -0.046618644 -0.25665134 0.1506649 0.36975044 0.17308196 0.092774756 0.004759268 0.04673852 0.4223081 -0.23836267 0.28622922 -0.037403356 0.26845208 0.05674615 0.022324743 0.048482988 0.28112146 -0.0022333453 -0.030501673 0.14910635 -0.35412383 -0.10232906 -0.27101263 -0.11219801 -0.014791769 0.2559965 -0.13519649 0.010057645 0.17666969 0.4981104 0.038632605 0.38745555 -0.006206128 0.048420027 0.029010907 -0.18719287 0.17922598 -0.0379239 0.33103117 -0.2256378 -0.04045387 0.13734508 -0.11755722 -0.26273164 0.10649906 -0.18901035 0.15657695 0.046788227 -0.13157086 0.1054641 0.21278965 -0.19059631 -0.324045 0.06696122 0.107009806 0.11301251 0.030822515 0.004820512 -0.12231085 -0.38385704 0.30952415 0.02686938 0.18526727 0.020388642 -0.11519375 -0.11354715 0.3171685 0.3230425 0.1889822 0.21540669 -0.09756977 0.007607319 -0.0048454734 0.05757851 -0.31140757 0.29591966 -0.17641152 0.028707065 -0.076797865 0.17551965 0.058035504 -0.27774325 -0.103452824 -0.120436095 0.104546 -0.14354208 -0.29410335 -0.42569518 -0.25208095 0.16718282 -0.011934205 0.19156475 -0.02631879 -0.14626807 -0.093334064 0.3081575 0.1631636 0.33718035 -0.21576917 -0.28798214 -0.034037955 -0.2765433 -0.074642494 -0.41596097 0.053789955 0.2832136 -0.2555069 -0.038605053 -0.054495137 0.26516157 0.41142008 -0.23324215 -0.14510031 0.45230195 -0.42782724 0.07921383 -0.019000238 -0.15074433 0.36018953 -0.21718764 -0.013775633 0.05803209 0.22215858
130123715 0.3324782 0.20685717 -0.038985822 -0.024900317 0.094942085 0.054699942 -0.12920915 0.27860156 0.19839914 -0.17779894 -0.01160393 -0.056920946 0.10905645 0.17706601 -0.5259915 0.096736625 0.054729328 0.14788698 0.44124967 0.10289222 0.4195232 -0.14157662 -0.0025479712 0.08208048 -0.06231916 -0.13486262 0.17874853 0.23651531 0.21381505 0.09951852 0.28774258 0.022785692 -0.19725783 0.28070363 -0.18171328 0.1493365 0.073263265 -0.035395063 0.113697134 0.13312477 -0.16434129 0.07397155 -0.27141553 0.22401075 -0.13135234 -0.41702744 -0.17028302 0.2077783 0.050769046 0.0029515726 0.08454191 -0.028165558 0.06974392 0.4404627 -0.008383443 -0.067682624 -0.24158722 -0.708665 -0.08660485 -0.09805417 -0.16042271 -0.247861 0.3591497 -0.04456438 -0.16779464 0.26118895 0.35269976 -0.11418159 0.2942058 -0.33063933 0.24008435 -0.313127 -0.10422185 -0.26923722 -0.28246754 -0.11986701 0.03265198 0.3085083 -0.16657352 0.12861665 0.2309025 -0.10485931 -0.020606074 0.20105523 0.6170119 0.023225911 -0.17054172 -0.05578952 -0.3650035 -0.284185 0.00093497214 -0.11485085 0.09062814 -0.19732225 0.23658063 0.19648655 0.3169185 0.43408787 -0.3973283 0.05834131 -0.27455682 -0.09135231 0.3192001 -0.17729004 -0.18795556 0.3985003 0.0057778116 0.088663585 -0.43212456 0.13076067 -0.14840771 0.12914893 0.12301719 -0.011460692 0.062891856 0.0030221348 -0.12729044 -0.14099441 0.035451904 -0.040624052 0.2802577 -0.26162764 0.041794665 0.029586319 0.17165187 0.32569993 -0.17722729 0.09619828
1512607639 0.04465718 0.41271704 -0.25555986 0.1789432 0.41644353 0.18658814 -0.0016582718 0.039280236 0.19020955 0.24642555 -0.12829946 -0.23382121 0.2328845 0.08277941 -0.11292745 0.12639605 0.063401975 -0.13989203 0.037807386 -0.15338326 0.25380495 -0.12497199 -0.030059516 0.13767567 0.061728414 -0.2824178 0.37162465 -0.021242427 0.17573756 0.013801815 0.32497856 -0.35076854 0.051210713 -0.077530645 0.054569177 0.046372566 0.49051073 0.09651941 -0.09029653 0.0219986 -0.1807063 -0.0726348 0.0893022 0.3770577 -0.16033952 0.014542506 0.10200793 0.25097525 0.0021769481 -0.07703035 -0.050734498 0.08759124 -0.11311166 0.21865377 0.27590144 0.17156303 -0.2592904 -0.29217947 0.05651148 0.12763543 0.022027249 -0.25935793 -0.0021528874 -0.05056061 -0.079333 0.20280755 -0.1597963 -0.0808584 -0.12443341 -0.37308416 -0.21186164 0.19155963 0.07192398 0.19613239 0.12102548 0.011880267 0.052954927 0.34543085 0.064286664 0.002271506 0.07077985 -0.0514355 0.01453827 -0.10086534 0.11080715 0.114924625 -0.0474053 0.012326512 0.04642501 -0.032019857 -0.14814155 -0.022556622 0.0040417877 -0.25132737 0.24088816 -0.11042109 0.24874192 0.18951444 -0.17020336 -0.10865156 0.44752833 0.3561015 0.45868516 -0.0830329 -0.21237874 0.20363042 -0.038523756 -0.050984174 0.039158564 0.03745613 0.20094115 -0.062292244 0.10499496 0.026664816 0.43635648 0.116634466 -0.096056744 0.3614522 0.016152319 -0.07140237 -0.0013736993 0.02756786 -0.020024674 -0.15752849 0.029090956 0.072336145 -0.2704589 0.2757292
61348039 0.35424304 0.04898486 0.16719282 -0.07476724 0.19065703 -0.3026475 -0.38742107 0.22423063 0.13855997 0.024575476 -0.19197571 -0.09577931 0.08146354 0.21504304 -0.08269238 -0.1558236 0.27111548 7.222305e-05 0.058725856 0.2084785 0.52540135 -0.2087662 0.22630276 0.2806929 0.047275513 -0.16504103 0.20008187 -0.23346348 0.12872739 -0.053281676 0.42479604 0.000222243 -0.120675854 0.14177693 0.11745102 0.21398789 -0.08922443 0.17904203 0.083379745 0.049610894 -0.1655848 -0.03796528 -0.17523213 0.24945904 -0.043034904 -0.3009972 0.120590575 0.22786663 0.47659257 0.18042232 -0.31155792 0.08104562 0.121583804 -0.00990262 -0.07209934 0.19129968 -0.27798817 -0.22070205 -0.038163923 0.26308903 0.10492128 0.34183687 0.29021016 -0.016277913 0.114004634 0.31271064 -0.4342812 -0.054727834 0.32850602 0.06637823 -0.07734557 -0.14881149 0.08932217 0.008683552 0.18567713 0.047041323 0.1385604 0.16905302 0.18399796 0.14063235 -0.0079312995 -0.14911178 -0.075920016 -0.16343628 0.47350302 0.22306211 -0.18211283 -0.25008202 -0.39641833 -0.034480244 -0.07311045 -0.3691148 0.045456354 0.20973454 0.043957 -0.41196874 -0.17921928 -0.21322559 -0.39515576 -0.1145107 -0.014633398 0.008066285 0.2646605 -0.46424645 -0.53237504 0.06093865 0.16797635 0.05277213 -0.007422216 -0.2709731 0.04838649 -0.19389522 0.17952289 0.4003159 -0.0624125 0.15721916 -0.035934594 -0.20463535 0.16537149 0.39436135 0.086169295 -0.2062312 0.087463334 0.12348912 -0.2993892 0.040007237 0.005844882 -0.08298235
750772255 0.030293977 0.021771297 0.1283099 0.07573096 0.22220086 -0.02323487 -0.019508425 0.11606955 0.19851644 -0.005540634 0.0020182831 -0.06906258 0.11177273 0.19143122 0.109877415 0.118185215 -0.030000733 -0.25760788 0.15448217 0.08823811 0.030319734 -0.2844515 -0.13400833 0.07753765 -0.2845568 -0.031081377 -0.048527867 0.062006343 0.22769868 -0.4076259 0.29217497 0.27913558 0.04753522 -0.04917239 0.32116196 0.33525515 0.48127338 -0.024047658 0.12070976 0.1961137 -0.088177554 -0.037283756 -0.3062037 0.3937138 -0.08546499 0.12494581 0.14484863 0.15353557 0.12808286 -0.12225182 -0.061931744 0.4022599 -0.03897796 0.16900279 0.2893064 0.11346167 -0.23625383 -0.3965389 -0.104039505 0.08536694 -0.18285179 0.17644352 0.10851801 -0.07348006 -0.15682924 0.39879605 -0.13869423 0.088299766 0.056875218 -0.10360161 0.18169583 0.2456767 0.0690016 0.106528305 0.14412564 -0.12191892 0.14536732 -0.039287128 -0.1785973 -0.06062602 -0.030339442 -0.05459804 -0.17751361 0.032421794 0.31685424 0.18150051 0.16412458 -0.4179644 -0.1435504 -0.17646511 -0.0009121086 -0.08419499 -0.3556228 -0.050515622 -0.03729604 0.0264222 0.4030074 -0.14733768 -0.08207611 -0.11854454 0.27866635 0.10897557 -0.08436974 -0.09402533 -0.06140829 0.40852928 0.0043572444 0.027167123 0.11101458 -0.13747694 0.262142 -0.012061897 0.35140055 -0.016659824 -0.05978061 0.15451346 -0.19416995 0.37334585 0.13721319 0.185677 0.14870483 0.009814071 0.3264716 0.28618643 -0.15128958 -0.08784456 -0.537986 0.2776211
73850532 0.01978507 0.22644942 0.20690873 -0.06572294 -0.11974128 0.09926853 -0.30407885 0.3159401 0.3451578 -0.02845682 -0.016134737 -0.25742546 0.19178419 -0.015687374 -0.6046339 0.17846239 0.040815208 -0.049975827 -0.1876077 0.1640592 0.5012829 -0.051276598 0.09269576 0.018866843 0.08558761 0.0810051 0.12052906 0.18022692 0.21350539 -0.13479863 0.19917366 0.25534463 -0.054255433 -0.24625747 -0.08693913 0.07919448 0.022643017 0.1552645 -0.35385823 -0.019806681 -0.05020928 -0.08262985 -0.23897672 0.240135 0.23099332 0.06959432 -0.017916229 0.12237985 0.07539787 -0.27274135 -0.058820527 0.5006805 0.17688107 -0.06563377 0.0349619 0.16322367 -0.37254962 -0.26672587 -0.22127433 0.39540434 -0.34954467 0.31799418 0.32795578 0.07477789 -0.079534836 -0.38039434 0.06681083 -0.06552234 0.0020395643 -0.19490947 0.2685875 -0.2954626 0.19293834 -0.08637848 0.12730847 -0.025634667 -0.030384742 0.47629675 -0.0014166507 -0.28361747 0.14216806 0.20058 -0.20772213 -0.24763387 0.33823633 0.3227665 -0.08248593 0.124454975 -0.043220323 0.12752922 -0.28251275 0.00440396 -0.01349862 -0.11282529 0.38995218 0.030639589 0.4242373 0.10671513 -0.37151602 0.23087704 0.31672877 0.055034995 -0.22830008 0.031969998 0.04448538 -0.1510876 0.16872603 0.14483002 -0.32935607 -0.15769742 -0.108792365 0.10901773 0.029046891 0.088210694 0.017428353 0.25648418 -0.23495936 -0.04855814 -0.059109785 0.014870375 0.07412358 0.30413213 0.0020588196 -0.0346492 0.19527361 -0.12527618 -0.20642844 0.14830494
25805982 0.1245841 0.3453885 0.048883986 -0.035618044 -0.10103381 0.047735754 -0.10339776 0.07637086 0.035854552 -0.105377965 -0.5008187 -0.042380515 0.10102905 -0.029844817 0.13747291 -0.09370988 0.11130248 -0.15996252 -0.13350157 -0.17735393 0.47775266 0.28793663 0.03376901 0.03503633 0.12278046 -0.30987746 -0.18450509 0.11711345 0.36047974 -0.29557618 -0.18836078 -0.1237694 -0.12749915 -0.122678444 0.17192934 -0.1538949 -0.022572035 -0.008568986 0.04631046 -0.14908206 -0.1445631 -0.19278187 -0.22359851 0.35371876 -0.33926257 -0.1030599 0.07896405 0.027000243 0.31163713 0.1791882 0.14371137 0.30185884 -0.2971792 0.018002475 0.0757112 -0.019313913 -0.5328721 -0.12973338 -0.083700515 0.21919538 -0.09608477 0.19748294 -0.00225606 0.061916724 -0.41512746 0.1040661 -0.21738827 -0.061936397 -0.04840874 -0.2496352 -0.046146795 0.0021570795 0.23422576 0.18089351 0.03539539 -0.06795883 0.23026642 0.25794044 -0.09038411 -0.36083215 0.090498455 0.09495033 -0.33778024 -0.20218644 0.38642403 0.3179854 0.13078631 -0.12297604 0.01752941 -0.10880165 -0.32528812 -0.0561491 -0.037068937 0.03482245 0.30778822 -0.12454656 0.47016573 0.0642945 -0.22722721 0.023956161 0.06778194 0.33012155 0.2652133 -0.12211727 -0.040605195 -0.05015443 0.31561708 -0.08597487 0.06503766 -0.1231066 0.18708804 0.01624682 -0.1405428 0.14187786 0.10950763 0.07745553 0.056159616 -0.08248891 0.24829654 0.14974101 -0.027985943 -0.039413508 0.14902271 0.12101467 -0.11379907 -0.1574075 -0.39001626 0.045230366
22607317 0.33820942 -0.26987472 -0.10510807 -0.50479764 0.05604021 -0.14152369 -0.36304608 -0.02952422 -0.08682942 -0.04605199 0.09451399 -0.18929324 0.081624195 0.0645436 -0.32474518 -0.024841577 0.28995693 0.04066821 0.08534581 -0.07385884 0.47531042 -0.036603693 0.02247141 0.23960508 -0.23241311 -0.33392382 0.15592487 -0.15519069 -0.115352355 -0.022536602 -0.035393164 0.06318602 -0.24009462 0.009565463 0.22201861 0.20338611 0.3504289 -0.1765339 0.029131847 0.06690633 -0.27698767 0.09690956 0.14574829 0.008114482 -0.1260136 -0.17529295 0.007784425 0.17330672 0.14549208 0.044872086 -0.35767457 0.34283474 0.14404349 0.107210234 -0.0917756 -0.008900187 -0.37597555 -0.583233 -0.11519903 0.2626738 -0.21120752 -0.0520878 0.2995094 -0.14772038 -0.08531001 0.29329345 -0.1168686 -0.11381895 -0.016015338 0.08032074 -0.042394143 -0.37534347 0.10652136 0.23178726 -0.10487949 -0.1563878 0.45460606 0.21480595 0.37877154 -0.023867974 -0.09407251 -0.31314024 0.02908565 -0.06743622 0.42440265 0.10767886 0.14325802 -0.28902864 -0.120928645 0.036313392 0.09511775 -0.038645055 0.21144691 0.13835372 0.19119151 0.004108095 -0.09740735 0.010526844 -0.46648097 0.22203565 -0.0806789 0.11435285 0.08485399 -0.39206827 -0.41721246 0.0807729 0.4445914 0.23238282 -0.38890043 -0.13123748 -0.06489854 -0.3802728 -0.3689272 0.059756257 -0.057915807 -0.014542661 -0.05179187 0.12419076 0.083095975 -0.01600716 0.1330989 -0.0076528345 0.15043114 0.3239847 -0.3658121 0.30091026 -0.34154424 0.2333554
275622946 -0.19257131 0.1414736 0.02142622 -0.008771577 0.40381455 -0.23240799 -0.106798805 0.20647463 -0.014820053 -0.2641609 -0.15065591 -0.29529372 -0.13621776 -0.31895438 0.11829743 0.07526872 0.3795393 -0.27013788 0.19962104 0.002691669 0.64552224 -0.24399558 0.05192361 0.14676395 -0.2747441 0.19433086 -0.14478041 -0.06979745 -0.36186326 -0.30226082 0.4719952 0.3234742 0.053474154 0.046983626 -0.21708576 0.30117106 0.1357632 0.16276503 -0.22964758 -0.0961755 0.24623115 -0.0035371797 -0.036622707 0.26206478 -0.017845137 -0.17984761 -0.15651745 -0.14206256 0.2533012 0.06928634 0.25001368 0.2462335 0.14398278 0.08213016 0.10777045 0.14056233 -0.20378295 -0.562116 0.2482347 0.14414561 0.26854396 0.09592285 0.3867271 -0.09370029 -0.4389129 0.3616003 0.1879539 -0.1580014 -0.23201033 -0.31496754 0.20571569 0.35503146 0.25249025 -0.09745523 0.047634516 0.035892386 -0.17677203 0.31339148 0.16579504 -0.02308839 0.2706477 0.090642266 0.05357798 -0.123244524 0.36183578 0.2662363 -0.29932484 -0.44053108 -0.1232563 0.096378095 -0.105704255 -0.1844889 -0.17226037 -0.049462665 -0.016482335 -0.031788025 0.15382102 -0.11010345 -0.38356343 -0.089871064 0.23436312 0.12069882 0.21987972 -0.31631768 -0.14142868 0.11374066 -0.37174428 0.12634946 -0.057880368 -0.2493002 0.12901035 0.17275229 -0.080270365 0.050866622 0.18360671 -0.036389925 -0.17235741 -0.16649678 0.23891997 -0.31662744 0.17046613 -0.42761368 0.022209764 0.2835249 -0.20471874 0.20711355 -0.08908734 0.15639342
160132829 0.08825703 0.35411876 -0.21413824 -0.33974212 0.087798454 -0.15150538 -0.26697704 -0.0229675 -0.15142739 0.123125866 0.19219561 -0.21729419 0.22780329 -0.08654528 -0.2867712 0.33352363 0.22004776 -0.12543362 -0.039154135 0.011417626 0.26970708 -0.12575646 -0.07713314 0.3054272 -0.20725633 0.021729276 -0.016017497 -0.27524713 0.16737011 -0.263246 0.26894906 -0.044313516 0.1550348 -0.12052041 0.027228892 0.37702847 0.05280169 -0.1798633 -0.09781382 -0.16991113 -0.017137844 -0.07253508 -0.21857819 0.115701064 -0.016878761 0.07369062 0.08906713 -0.0070411577 0.27029848 0.13303545 -0.39706415 0.3446689 -0.09217413 0.025365172 -0.28890264 0.11339855 -0.26088586 -0.494239 -0.041433122 0.11977351 -0.2037495 0.052758176 0.2774467 -0.0092116315 -0.1915076 0.21596779 -0.31188667 -0.024653917 0.2888432 -0.09575481 -0.07675631 -0.17874032 0.055643685 0.057660177 0.1551491 -0.02091964 0.163849 -0.026433876 0.05801394 -0.060337357 0.14061843 0.18632568 -0.00075139484 0.012695723 0.1478792 0.2183048 0.008507887 0.023949936 -0.20634581 -0.055369005 -0.1288545 -0.010901302 0.11075694 -0.032415617 0.16847315 -0.16691035 0.2502036 -0.030238733 -0.28306195 -0.0071655833 -0.15212008 0.08620162 -0.13503757 -0.47860858 -0.3927711 0.1238446 0.15786317 0.14436056 0.038725678 -0.030258913 0.07203885 0.027319843 0.25187927 0.21499833 0.041037295 0.30909953 -0.12621263 -0.2543835 0.49015546 -0.06582759 0.13555641 -0.1845797 0.22732358 0.027883815 -0.13986345 -0.024738818 -0.11415517 -0.0001019069
37413076 0.2871598 0.2474172 0.38343668 0.007672512 0.11166835 -0.047534738 -0.11622438 -0.09376206 0.11489252 -0.19583754 -0.02957132 -0.45460522 0.015901752 0.2636786 -0.33769786 0.39466032 0.0645489 -0.087807804 0.04741959 0.076808006 0.056425374 -0.16111201 -0.20319612 0.25850713 -0.038220238 -0.0877618 0.12660563 -0.12657769 0.38559985 -0.122940764 0.48071852 -0.08241598 0.092115074 -0.22278562 -0.0048302785 0.35157984 0.34719545 -0.014472434 -0.028421558 0.07832887 -0.030365655 0.29352528 -0.05305431 0.1628493 -0.15866043 -0.08424955 0.06402212 0.022665739 0.018991949 -0.28364217 -0.028382856 0.2639792 0.042632587 -0.06285901 0.16650118 -0.14408776 -0.28670612 -0.5340344 -0.12731001 -0.046791375 -0.16488372 -0.10208355 0.13530765 0.071872 -0.011600042 -0.17342316 -0.19400991 0.06336843 -0.12342069 -0.1934503 0.03259966 0.091120735 0.20487428 -0.06969227 0.20630856 -0.0253771 0.097616 0.3053377 -0.0068993843 -0.011756005 0.1462869 -0.11169253 -0.2582694 0.0019095662 -0.001998048 0.1122079 0.0013703206 -0.3626653 -0.16197148 -0.2262911 -0.05088836 -0.041090287 -0.18313873 -0.22503321 -0.022610819 -0.002707342 0.28439173 -0.31998602 -0.12699777 0.046603452 0.25257412 0.3342533 -0.06749134 -0.098384075 -0.20009354 0.21708094 -0.17062877 -0.14098135 0.26754227 0.3039111 0.18404423 -0.27395326 0.2980035 0.026492856 0.1503882 0.13428703 -0.14388542 0.09307967 -0.110870704 0.08344753 -0.016590811 0.046604857 0.24856193 0.08525994 -0.07463769 -0.15361771 -0.12255766 -0.16495202
347048522 0.35722128 0.3405769 0.12877072 -0.21619222 -0.37085897 -0.2832764 -0.16441469 -0.47823682 0.16992787 -0.13894233 -0.12117426 -0.46363467 0.055822197 0.076029435 -0.12578662 -0.123878725 0.17878377 0.043734275 -0.19969364 0.054300796 0.5102609 -0.29508442 0.021214573 -0.13609047 0.2483616 -0.33796045 -0.1963659 0.008551052 0.10722271 -0.053370498 0.309829 0.04823215 -0.11582773 0.067834325 -0.08641925 0.14754616 0.07305276 -0.12877259 0.29193932 -0.23561375 -0.13809247 0.045584552 0.0038615584 0.2735932 0.04604393 -0.26886868 0.0023434928 0.0009917759 -0.08921892 0.21321012 -0.00904622 0.28185543 0.15380456 -0.16734321 0.3885831 0.22096992 -0.4186624 -0.05039474 -0.009307802 0.06000073 -0.24986327 -0.16076915 0.1588077 0.10857687 -0.023130232 0.1483873 -0.3195375 -0.07217475 0.17498626 -0.08357055 -0.10138245 0.103707366 -0.26320377 0.05596029 0.28752974 -0.16168597 0.20331335 0.5916893 0.08062746 0.0693666 0.013382235 0.006362137 -0.047932796 -0.25191972 0.35686216 0.33867776 -0.16436063 -0.07829735 -0.0715655 0.108177744 0.29231623 0.103703566 0.27518865 0.02934538 0.2866287 0.36344308 0.22698018 -0.086342275 -0.22242193 0.07159353 0.1994998 0.14982788 0.4792985 -0.05049326 -0.050591648 0.08318389 0.026450377 -0.049841143 -0.13006037 -0.028791184 -0.0032150617 0.0035773888 0.0316128 -0.034888346 0.2256931 -0.20319554 -0.282184 -0.073764645 0.49778944 0.17240214 -0.3076793 0.12979007 0.4754663 0.42532313 -0.2284719 -0.14556873 -0.010533066 -0.0682178
66063257 -0.3344159 0.17374733 0.27389562 0.029791014 -0.005470079 -0.12144037 0.1824828 -0.16907804 0.057059236 0.17109498 0.15424728 0.05650285 -0.27191207 0.33413327 -0.26341382 0.18779022 0.001720622 -0.035278447 -0.11389769 -0.14508687 0.31786963 -0.02335444 -0.0891252 -0.016414037 0.1157676 -0.100008965 -0.36895898 0.2954987 0.065629154 0.19591472 0.16543704 -0.03938167 -0.13352756 0.0025177111 -0.053382214 0.3857553 0.26566553 -0.09607312 0.016277619 0.08669213 -0.20170623 -0.12891333 -0.17871962 0.21825811 -0.34805438 -0.13380386 0.1448087 0.086648904 0.04652615 -0.2597158 -0.23715262 0.2168289 0.04337827 -0.2727973 0.12019468 -0.19832127 -0.041743755 -0.15728633 -0.12515174 0.45727676 0.007506178 -0.0031230988 0.3082224 -0.20455386 -0.1256111 0.23177198 -0.32799327 -0.09164937 0.24506903 0.021331538 -0.55904454 -0.15960984 -0.12031741 -0.050985884 0.23333131 -0.12966503 0.08548506 0.4237212 0.16074967 -0.7668195 0.3110829 -0.022310276 -0.044513583 -0.08715469 0.15667781 -0.37160984 0.07347119 -0.4399134 -0.39775842 -0.09625964 -0.09633731 -0.3187697 -0.10371325 -0.073629074 0.034982715 0.14450479 0.36347017 -0.15385263 -0.33037665 -0.14429905 0.23705554 0.018502042 0.0071430486 -0.16392905 -0.7586113 0.12995757 -0.045688067 -0.21722281 -0.4025824 -0.041792613 -0.09211203 0.21933296 0.16122474 -0.017991155 0.24334145 0.10266821 -0.008180404 -0.4375893 0.09563067 -0.2493298 0.27848336 -0.21163362 0.08644514 -0.14583455 0.17602454 0.16531031 -0.2719628 0.17178158
